{"inputSize":26,"layers":[{"activation":"Sigmoid","size":60,"biases":[-0.9943669369673638,-1.5611524357063036,0.5266903901069083,0.08542746004219444,-1.0850738218828324,-1.6020899357688534,-2.4645789435924104,-0.0504247159630161,1.5036098140126328,0.35091509515966385,0.5492723288127676,0.5597992275283337,-1.4105518316233419,-1.3975068249348048,2.0676573342211095,-2.5065317444329214,0.9326086932005855,0.32727406720033436,-0.5994469436536706,-1.7407025653608685,-0.7814845486906631,-1.3212434248844216,-0.8161687311611615,-0.4621805068714958,1.6830587806643906,0.8830786606831553,-1.677418825046244,-1.0323230344053254,-2.0214498053224834,-0.001314212809238762,0.11015764140084189,0.012116915474549017,-0.5056780508193369,0.8960576818270501,-2.3599014603244295,0.2616438285719351,0.20996548362589046,-0.9835578909188564,-1.4911289396537108,0.9630174495010722,-0.6164098844067676,-0.1202847384697282,0.4762251406118202,0.8187270675842189,-0.11636149531202546,0.06800076135449455,-0.15725419452879616,-0.9010893059661986,-1.3802676779677907,0.7528604618534703,-1.803505663571192,-0.759919475830424,1.1906024032968794,1.1362414264369707,-0.8450990514671717,0.6644540003143332,-0.04346115791351646,0.6896885846716483,3.3050165503143507,-2.179078051992002],"weights":[0.9434993112925121,-2.7631896581010613,-1.0640638383814904,0.34346986156135434,0.3546879029203942,-1.6644414622268422,1.3710799497603807,-0.6109540334963898,-0.5248538893897806,0.6332061374682201,-1.8695192967436267,0.2680298701445759,-0.3376575073917931,1.7569847106933594,-0.9939882755279541,0.6743615807373396,-0.2756277951255246,-0.8381169438362122,0.7609683275222778,-0.37932973900526534,1.6126552423062994,1.3606641365822074,0.8419159471520596,-0.7209877177142445,1.6311648570495052,-1.0384116563875834,0.31822269730936664,0.14871618630342107,-1.2060135586319325,0.6582557088558105,-1.5143546612717514E-4,-0.9929927001932626,-0.9907267170937311,-0.503573059041927,-1.3455705110031808,0.27282818943322706,-0.7497606246798989,0.45217676400788986,1.4961599948008553,-1.9321368932724,-0.22885562479496002,1.3420717464878016,-0.5403271139972505,-1.295842170715332,-0.3396983742713928,-0.4197565342502986,-1.2961474952196774,0.3907852038621829,0.9137821010442951,-0.9940843921521592,0.9454801309650853,0.6451174266539114,-1.1832230637518466,-0.5768730936999401,-1.807084996135889,-0.7163249937856331,1.5070491305153224,-1.2451493837665752,-0.49456703554075093,0.4605603809868513,-0.6291585178945023,-0.5156925208823757,-1.0114959614735128,0.9730811288392484,0.26524502381439163,-0.560591459274292,0.12334682792425156,0.9375776203854849,-1.1456587710425277,0.9019860625267029,1.016327977180481,-1.2363544131128739,-1.9165593024683871,1.2313693349031063,0.07503544829150492,-0.9435876875249831,0.7826934612275421,-1.7892834717476562,1.3534970680470353,-0.5048528622676678,0.045378204771132566,1.4678635267250275,0.6569848810091409,-0.8604625068250054,0.8972106310010902,0.2222431753603794,-2.1670121639191735,-0.4196602511218589,0.5495479837753697,0.20468335350142935,0.8659228984864452,-1.7951518297195435,-0.09557201713323593,-1.1140119198807803,-0.7506174658398571,-0.23434393107891083,-1.052663803100586,0.19481766886794064,0.9429101481288531,-1.2634384026458307,0.5830286940549165,0.0920180810604519,0.2423163894019881,-1.1185662086313117,-0.7175540444455745,0.020782021853222317,-0.8778931672234381,-0.343080899388975,1.5605508512388886,-0.8084469343963098,-2.2112829962223763,0.07787376829285667,-0.7745048855499825,0.6439338542188539,0.2762944092225011,0.4596687593708152,1.7554284535014666,0.05750627815723419,-0.1991952508687973,0.860963028028619,0.9487877742457044,0.13974009454250336,0.9115650057792664,0.5977168742282685,2.119646448644833,0.9081059081149213,0.4305878012768917,-1.231912260349722,-2.902497900317572,1.3399843417027404,-0.71811681770818,-1.4037218576461183,-0.008512011263926767,0.7260145099172611,0.7165608157892245,1.008224822825072,-1.4775491012355124,-2.7597361648201586,-0.48282715911542484,0.10898924521257612,0.4497197149073465,1.0498014094899315,1.105628998472241,0.17800310254096985,-0.7514505386352539,-0.476550864716789,0.19122444299352978,0.14140862226486206,2.1854259967803955,0.5169470121394788,-0.1310649946650461,-1.8116502821955998,-1.1843816292289049,2.35340983790052,1.057540795181765,1.1866641865513752,-0.755726013812722,-0.3371331239275212,0.9565699157422562,-0.44592278139977903,0.6547427772273091,-1.606661203928462,-0.1485804038012143,-0.5298968751799753,0.40794979921326363,-1.094217409360829,1.1253749466178025,-0.5956002450556567,-1.0740440563054041,0.21719272434711456,-0.3406479060649872,0.3177651691476281,0.026125044656757995,-0.41783222556114197,-0.9574888348579407,2.0604335273316288,0.13845606711208364,1.3041711280147186,-1.8385638569257845,-1.2918368308588926,0.02079717632580817,-0.13319358994295596,-1.1325347399718158,0.810600775664356,-0.1583263321797421,-0.11787943641977283,0.30433080632429627,-1.4944333794012261,0.6605184927637304,-1.2319695604595038,-0.7471085029034433,-1.9325289671444077,-0.8984076372338878,-1.5093554623389245,1.1731730680173516,-0.6742584705352783,-0.6575167775154114,-0.6754694221784512,1.832209421927426,1.1790982484817505,-1.6847188472747803,0.9933247126867703,-0.3156826239174037,-0.7560015857136981,-0.20557451548315522,0.7718776472982536,-0.7367628606462753,0.290561646002383,-0.2834701185385747,-1.7568283473086381,0.17232611419164343,-0.9017754638196406,-0.6368353359937008,-0.5065092615577583,0.461298848417573,-2.0948747312062026,0.3946195666341861,0.658862135864561,0.4662378774319041,0.6101896217515423,-1.5089718870620854,-1.5715231895446777,-0.8406446576118469,0.949756378903804,1.4104290902222414,-1.9591809511184692,0.5420177578926086,0.06409010207972132,-0.27879788778434017,-2.2480449536360303,1.446197389239244,-0.7756178966043209,-2.158941450781543,0.8277592776748843,0.7554115916848806,-1.055193853444881,-0.2744043523970257,-2.2898340784132247,0.35046254466769583,1.8739909274610838,-1.6047082095666987,0.03336885594566902,-0.36172178068885125,-0.14074514069982572,0.5398596618203054,-0.7867785551880672,2.170886157043603,0.76021409034729,-0.5111066699028015,-0.028063095667439537,0.37856163033670376,0.6753814220428467,-1.0900200605392456,0.9586339686726338,-0.9351481801670164,-0.39359820263766576,-1.2936233608301728,2.0965622025712274,-2.0230700159804567,-0.9976288835640684,0.9161921042461116,-0.5862927300345279,-1.320856432669701,-1.677908418528001,-1.6823374862152365,0.47875205646049795,0.4491035064000954,-0.5085798540767396,-0.04443945477820416,-0.02151801332549888,-0.9874609122228779,-0.1734003718457136,-0.5492704119839746,1.5786094665527344,-1.28835928440094,1.3310844982594234,-2.0097825728022594,-0.22987952828407288,-0.4924565255641937,-0.46637220510013533,0.031324923054678336,-0.7142175154853115,0.5509392804075155,-1.256018152700832,-1.7280708342808146,-0.14762860544868084,-0.16913274405928372,-0.7914626341880512,0.013773168435742233,-0.03590459473291526,-0.8168882851298966,0.42121538134405084,-0.28767866571869,0.8434722882349667,0.24747207753883188,-0.2546230917017702,-0.23101647267438066,-0.34682506626412457,0.8288631458323494,-1.1283321380615234,0.7341070175170898,-0.2786009256263439,-0.17401190067189146,-0.5472110509872437,-0.25697726011276245,1.22377327670508,-1.3762571945157704,-0.6420287313882475,-1.1684895635326251,-0.6615043313653232,-0.5136368363362759,-1.5338339660040072,0.15929451271315154,-1.3887656810689593,0.5618311402048135,-0.5995622730645698,0.38407865795914525,-0.5048042286382171,-1.1526599121508532,0.4158923308264677,-0.543677289241289,0.04641329976358082,-1.616455914996241,0.6463558659605705,-1.8745245590051525,-1.549193263053894,-0.23312640190124512,1.1097613836953435,-0.700475204312981,-0.9765405058860779,-1.2120246887207031,0.9460990398931088,1.5014016084463055,-0.42708898430304765,-1.0344339032253604,0.5032904366332706,-0.06326692970974337,-0.3189557792836597,-1.5036721662248411,-0.37454250905522973,-1.0529520062554059,0.18967569859651648,-0.10726104712360215,1.9328779137143528,-0.741427495279246,0.6087352279819025,-0.5649648813531624,-0.7932813192795297,-1.6710811681517028,1.619118057501871,-0.2164776262673198,-1.1894309520721436,-0.21468858420848846,0.696699567616896,2.1806728392480528,0.922080934047699,0.3313487768173218,0.5606026628587832,-0.05393502460436974,-0.692124790717245,1.2278137417743442,0.3970494461691602,0.8837891799388076,-0.6276460010067806,-0.3672314325887916,-2.079410175082283,-0.9814078037773734,0.6863507522249656,1.0437310865803804,0.7246141729203621,0.1749299693641214,-1.547749987849043,0.5524529594278554,-1.7008592788082237,-1.6027537411917174,-0.5087779498461764,-0.13884045787255522,0.21685265004634857,-1.9725416898727417,-0.21164748456881669,0.46257724423803065,0.6840317845344543,0.5060226917266846,1.896553926436937,1.1773271211479002,0.33698110299659184,0.381615823005205,0.9293750291016664,-2.6171603050316645,-0.39857919580061246,-0.14282284832139258,-0.8607433975880626,0.3686088205956466,1.2636244056018733,-1.5015160639887482,0.8136913486417517,0.16490331956669504,-0.6546052164698852,1.026119894173263,-0.18422554390054857,0.10446953543519347,-2.0748486767771666,2.0280396401317637,-0.3218602240085602,-1.0112305879592896,0.17538153586343153,-0.043899923296537705,1.0721900463104248,1.3919264078140259,0.05097823511052019,-0.4942318464180575,-0.3900028202615713,1.262035799948262,3.774005095241544,0.5146915974958188,-0.5268547487599652,-0.8723931155711256,-0.9563071928337783,-2.1139593537676897,-0.010042611235655929,0.018067866559827717,0.757381841874472,0.9775835986430749,-0.9474278236541961,-0.5506495699719723,0.07794692660465054,0.7267505229588466,-0.7055983796885433,-0.39618515017347344,-0.47073104977607727,0.17352187633514404,0.4262368901170364,1.0073720779345365,1.3270822763442993,-0.666947066783905,-1.3114129195337254,-0.7747498454721252,-0.5922771628921403,-0.45234553608606887,0.03775936170047376,-0.3880822001442483,-0.10851447532300325,1.5091122378669966,-2.1908567387285025,-0.04984066752530846,-1.3934875627098013,-0.055606531892621325,-1.8399750408536493,0.04086732764955251,-0.926614234021978,-1.5780819619028892,-0.30991508035314896,-0.777537059694008,0.4638883032525454,-1.7593778894542949,-0.28634020686149597,1.381306767463684,1.234029593514278,1.04644246414667,0.33979713916778564,-1.3004556894302368,0.04011375962092644,0.6142673275424925,-1.3141881973760514,0.1694086737586154,-1.4189387899092185,-0.6261489040057221,0.8209932854531491,-0.8592012117839234,0.5729609866128498,0.9307373279497462,-0.23867766052527603,-0.020957654936513664,0.11820337516356119,1.0789362440653083,-1.6008803575998205,0.32637967010950275,-0.1530684603233972,-0.5385756499156642,-0.4550592006563452,-0.21554900620772724,0.6416251063346863,0.14006644487380981,-0.3851190237634199,-0.07055748942065522,0.9129664301872253,0.24358467757701874,0.7378971343336491,0.7873204201483248,-0.07481870702037914,-0.8173339842410423,1.6093424035137276,-0.48255222110823565,-1.5395081432573687,0.8910176837186328,-0.9484671287938563,0.6802370121853144,-0.14380761286250351,-0.2631548591917157,0.386252112351417,-0.7467802919818294,-1.1248858389221263,-0.5655330193270902,1.7556273742756783,1.026775851951491,-0.7247675870248941,0.5995776896678463,0.25427165627479553,-0.1418398767709732,1.4834600522860344,0.14114912454547662,0.123937226831913,0.5999943614006042,0.4373334147754297,0.24823284371660012,0.7564128978383593,1.4650927502175104,-0.728366246614308,-0.971996590063252,-0.9459200365377245,-0.4050694540731481,1.3236210419903691,0.22066617332393607,0.784411844025003,-0.38107232200456,-0.08641296302499171,0.5797019642650987,-0.3781098329956544,-0.5182039277681776,1.6090478230633103,-1.1167401567997683,-1.4877214161546417,1.130980427200226,-0.5114140510559082,0.17220531404018402,0.662160148546617,-0.7995117564967682,1.6512577533721924,-1.239295244216919,-3.026722026863158,-0.255009933300032,-0.9907202028345511,-0.8212326312369769,-0.006427495510975482,-0.3614218748339116,0.015037807010163025,-0.8174016200738827,0.2072107738469447,-0.5751615224281538,1.5729338485243969,-1.0543215226345133,0.7011591449007462,-0.5134955947152264,1.579977509428626,-0.8080352000275094,-0.8079683734114809,-0.9154678463085615,-1.095870218992798,-1.4280047491019563,0.6854149699211121,-0.34041765332221985,1.2722318901963323,0.7269577433460173,-0.15852122008800507,-0.021815946325659752,-0.165551765072967,-0.0727837738745144,0.16305004355338773,-0.17333453250775785,1.198675036284361,1.391817484383995,-0.7828749251227272,0.03724379710041574,1.6691301793921933,-1.454780434371986,-1.3217045378750907,-0.27403756381312355,0.9523692596320299,-1.1245417932275847,-0.8110263130340716,1.023299284262828,-0.8051079830006486,0.5829371894198365,-0.9127150262163434,-1.5186856374328035,1.1961655616760254,0.32132378220558167,-0.920753321221893,-1.1025697527173735,-0.17937080562114716,1.464707374572754,-1.7129568826200032,-1.0035007939239902,0.12749927664876085,-0.09099911503665482,0.6199522126079324,0.3200228607627999,-0.4253796765599314,-1.0717873424026778,-1.5889972021393106,-1.8228592747248034,-1.4455098759520686,-0.10235621539603337,1.1112136453118793,-0.2769508582986313,-0.7330926071705639,-0.0862748605789062,-1.7480594441782162,0.19751198475945345,-0.3787027138060347,-1.2152701206674166,-1.672269344329834,-1.314260482788086,-0.648889965085937,-1.6249048281428948,-0.8870844841003418,-0.4308921694755554,-0.40832818443952973,0.2586783553831428,-0.11909194166646885,0.3346331528772956,0.3771089272233844,0.5451075792935897,-0.28397772742608207,0.6353268144554308,0.6707570545809899,-1.6072741982231913,0.7122488373651131,-0.11561021539380226,-0.4314382684066108,-0.5812682250306912,0.5374423686112461,-0.46281304968355386,1.4809755580246031,1.3975799931245219,0.7840932507417727,0.9006061795561251,0.3823164999485016,-0.5525605082511902,1.2594340669386586,0.7224391837476078,-0.34516945481300354,-0.9088660478591919,0.1441081015445781,0.4171072673233576,-1.5709484497352189,0.8138487581662361,0.9329973436571133,-0.3894490536057392,0.09183406314869841,0.6640562975220737,-0.6784267567892451,-0.2685210064101003,0.24732910495386085,-0.9943129669505627,-0.04552221826092569,1.485907424004133,-0.7643430913883928,0.14710710477675742,1.9101975978285057,-2.261176155954388,0.05973417211100832,0.6700902624659614,0.09789476543664932,1.4708166122436523,0.5356127650940055,0.31249319413792,1.8112579584121704,0.26781919598579407,-0.33332272552280295,-0.7958160756396498,-0.24351481777567693,-0.33982079264291193,-1.01321901403366,-0.36544197264655726,-1.0439905900620678,0.9297929574059355,1.0798643481204695,-2.3491764915936604,-0.3423662122934838,0.7223779185000002,-0.025103129690806233,-0.8514878755920098,2.728125912523564,0.27890160361551025,-1.1893509121282395,-0.5458259609561538,0.7669992329141682,-0.5798707950198217,-1.2265307903289795,1.6035200357437134,-1.0570327145352751,-0.7663321145742584,-0.11953288316726685,0.9096485376358032,2.642576029060058,-0.14433788883814108,-1.5401481890279352,-1.779719208519774,0.4160596266925307,-1.0248503489829666,-1.1063162245090457,-0.9139700402126957,-0.566362310852576,0.2574831583223195,1.3625827416584397,0.2579215656543966,-2.2409559860950985,-1.3299076910895644,0.8416818230395839,0.8184518681795208,-0.17825536627629918,-1.3606141831231275,0.37000373438231426,-0.11030819912884327,0.5328347086906433,-1.2014442682266235,-0.04368218381542932,1.2694661945659702,-1.1384086608886719,-2.3690872192382812,-0.8453769206348152,0.6652269856363761,0.31837124973903946,0.3824885854577371,-0.9089396324383572,-0.020713759136959702,0.5859836462369031,0.9852338609928701,-1.000230229865178,-0.40656251737319715,0.4945328606488359,-2.222529610357222,-2.3844891300092215,-0.03562057024475405,1.0374537377322424,-0.13096702691924164,0.19070376812285228,0.31374951475003476,-0.5620275986102135,-1.3598915771463032,-0.3287709057331085,-0.384229451417923,1.1656045467202454,-0.5828611933947168,0.2823525667190552,0.2459648698568344,-0.487855189313016,1.5344454597181445,0.21383264054354584,1.2819748093879908,0.7423346756737155,-1.641897536489969,0.054226941889678346,0.4458589969198036,0.2071279636310945,-0.1381467124781825,1.0026399073604928,0.5423527449005824,-1.2572118096817353,0.29165326548285203,0.5909669413535396,-1.4071695863329727,0.5141384713423222,1.0096444063804013,0.0628291034443226,0.38234977331915465,-0.1810082644224167,-0.10347079485654831,1.383631707146234,-0.36584837881268756,-0.7413490414619446,2.5816454887390137,-0.2679666221327334,1.8601198095937892,-1.0040572988342322,-1.0428109641768624,-0.4093993985199805,1.231696008851828,-1.6941389603003794,-0.9281447356753912,-0.058423303586947944,-0.8904493477202845,0.5788364212773438,1.7970229906698265,-0.22927374298550085,0.7601275166590202,-0.7787158383929149,1.3170199117839214,-0.38734465810576335,1.7483162618655887,1.3273642899015472,-0.02191261262772264,-1.1019386053085327,-0.6500852108001709,0.32485557965689693,-0.022582358648220342,0.6323373317718506,0.08677268028259277,-0.11209553206389819,0.7741510868590171,0.8986829232495792,1.6660085977890107,0.19072393746270103,-1.2847834297584984,1.1109269871430671,-0.35802752788629927,0.9219698231894906,-2.3775872886374043,-0.7012918089700529,1.53332840864232,0.3644349278823168,-0.9599405594051525,0.15628615887942812,-2.5305803639797984,0.4722656437516937,0.7343740381238225,1.185412712493504,-0.8254423352281526,-0.037445999681949615,-1.5032492876052856,-1.3977553589592826,0.4593947323830459,-1.3644943237304688,-2.5248935222625732,-0.26543057460786845,0.09633132223098885,-0.6223169858345832,-0.7483149204908589,-1.2434322798375512,-0.15242458398510864,-0.9442642591433074,-1.4362241338500121,-1.3583751001183897,0.7330240076267479,-1.192200273571222,1.4720182286355998,-1.5413632204905372,-1.2110629919638345,-0.28320021419201186,-2.033613546869847,-1.7646267796580082,0.557836771085631,-0.15255763751446683,1.0247740042751934,1.0370569229125977,0.562076985836029,-0.5371196064589072,0.7355754449271283,0.3795276880264282,0.02959759533405304,-0.6176888257081642,1.187131849628662,1.687524138373703,-0.2208348388838373,0.8164173278403435,-0.8191859597144826,-0.21943021789466052,-1.3189738587619766,-2.2062523587206573,1.544508533764011,-0.06140258542560765,1.3019346633083628,-0.5454227025053132,-1.2292079318399471,0.8476423005731704,-2.961059133279474,0.8164447481756167,0.5239739969558964,0.28607877623090383,0.46351369074111626,-0.24953320622444153,-0.4885719418525696,0.9736173859155244,0.6031147096976748,-0.30117863416671753,0.6860964298248291,-1.488983330958332,-0.25250194833715767,0.2180782262371015,-0.3888238901818177,-1.4329126840971922,-0.45275345468544115,0.08165882142101859,-0.9216790662197438,-0.4836419806994138,2.2474211626061664,-0.7524644425041378,0.6214524406122012,0.6081266169129055,-0.038745495318371015,-0.12328814289087917,-0.7423098309973666,-0.28382954850209474,1.5193066279635197,-1.5153080749117374,0.0840478498054424,0.42203930020332336,-0.21756398677825928,-1.0629993441709036,-1.1840198714269992,-1.0176594257354736,-0.16506652534008026,-0.8559205603893557,-1.0389239622115163,0.45459212191340403,0.28174321367507854,-1.5865936437311505,0.4235213438447238,1.0457823573860838,-1.3811581992188164,-0.6791114648100084,0.6396587970861696,-0.4845211706693832,0.7344198037421288,1.4748402912538345,0.07240523548216699,-0.06271823093227358,1.7390799743671062,0.7621091939106052,-0.32556292662448033,1.2740098381448155,-1.0586123724225471,-0.26082882285118103,-0.31139352917671204,0.6440613862353459,-0.3491140249591409,0.7901747822761536,1.4985891580581665,-2.449301270893626,-0.17062380434097804,-0.9099548697370642,0.21778006599956912,-1.4384046418283982,-0.221800359635675,-1.040532836192002,1.5686304889383127,0.010365562603386384,-0.9280274860219728,-0.1227692763672811,0.44585809895980916,-0.04349693396567182,0.3734357203392954,-1.6969904498633286,1.218268708713219,0.03935177209820391,0.5566183049712334,-0.785525576606122,-2.2577412938998633,0.4517688751220703,0.5420687198638916,0.3291349209826161,-0.755427668639872,0.6754884719848633,-0.09688063710927963,-0.38303353074156704,-0.05063374860957177,1.9617947459409089,-1.2420754035079689,-1.9817769047139275,-0.9311986246273622,-0.35344218280793327,-0.4879270446559625,-0.07626596820043696,1.1735320264117115,-1.023897290397847,-0.780582319424872,-0.06555164767538191,-2.4841405634083107,-0.008312806764136536,0.2852212876848146,-1.0984896480040596,-2.0274144117036204,-1.4052589476285364,-1.4452173208613994,-1.95570707321167,-0.4392032027244568,-0.9698575141497308,0.8964396821476743,0.6193609833717346,-1.0583887100219727,0.3488411793269477,0.6843067515516178,-1.570280084748544,0.4059195833662362,0.904969434436527,0.3916396453060596,-0.11870406356317023,-0.30511727508883996,0.651708233217083,0.4595167992907696,-0.8787540691300104,-0.34817739290485894,0.23348594182546054,0.12207471823852614,0.4796248792704307,0.639806719442565,1.1332777530682512,-0.5961607881040087,-0.24903717527195082,1.9216538650994306,0.6138410568237305,-0.3912278711795807,-0.760710098126488,-0.7208548961326632,1.0013705492019653,1.434967041015625,0.5055991293047736,-0.30491654477713104,-1.0879391011503876,0.24627712821524272,-0.5034949239549742,-1.1635668989501609,-0.8452832172887775,-0.04368343867404269,0.46113132592608946,0.6168430651820476,-0.9560064357314609,0.3762921523431921,-1.0418282528282397,1.8814519304131585,-1.0068234967054037,1.046306106819481,-2.457315500265665,-0.8244900999157363,-1.2463016602965973,-1.7459632274153472,1.0073492527008057,0.5868262052536011,0.605592018723,-0.1438489633918531,-1.1659657955169678,1.6662092208862305,-1.8577409116237191,0.18619674295203956,1.5715570277810471,-0.8159891818696067,-0.31061689781510365,-2.2387643220355655,0.3183322475103502,-0.37886884911220403,-0.07955920356119847,-1.3606813506281217,-2.26737747555824,-0.22611486904421785,0.032864076926816636,-0.36451443317571325,0.8539039990428035,-1.4898672989631134,-0.13067237182925365,0.11075062626392757,-0.14530117798999753,-1.3367084854240388,-2.1510262489318848,2.624837875366211,0.4457508402632234,0.2903994209151022,-1.2170982360839844,0.5835515260696411,-0.37307626044752984,-1.2030706056113292,0.9132274593608418,0.10158701618557961,0.8505867220572831,0.24543507576836798,-1.4807722413970679,-0.08682767819368074,1.0725103141535084,-1.0238890589266643,0.36738620926771254,0.2148615860161633,-0.0819158107803716,-0.5832985924800435,-1.519937192789891,-0.41032380322722023,-2.2278380960114417,0.8164229693929652,-1.2095772331764783,-1.2634308384105464,-0.3375881314277649,0.4573967158794403,0.1074700432649554,0.5015756140104058,-0.16469238698482513,0.3156183958053589,1.2262019626064626,-0.07097118013418093,-0.48239332890259934,-0.6201363516463931,0.0812400828351942,0.24575727195357244,-0.19849317624704188,-1.543294953430803,0.3820761915428802,-0.7969601579207366,1.1861808435627417,0.9172935945915938,-0.953456421209212,0.8799671559620895,-0.9063477136036776,1.022871383668092,-1.2455754706836168,-0.0799295374508661,-0.1488307818411319,-1.687695256108597,-0.19094686210155487,0.06791756302118301,0.0695180379733631,-0.014074419548188406,-0.33636435866355896,-1.2228906154632568,0.1435604972885615,1.1289398953630907,-0.325123433033767,-1.607842501840507,-0.337265458581592,0.6410001180243511,-1.1907005171258707,0.342615803221077,1.3551913792381929,-0.028712397183269314,0.6925960310036618,0.7482309400616248,0.03364237803927431,0.07611790222694526,-1.5387596751817076,-0.8947923751306421,-0.6191947782851145,-2.5971828611772927,0.851689364060244,-2.3240484664036822,-0.4800516664981842,-0.3755384087562561,-0.3375748833701221,0.7075037141960411,0.08177416026592255,-1.677525520324707,-0.10704677754234963,-1.3791376927236871,-0.3937668127132997,0.2258919762461798,-0.9443322104706818,-1.5329408074138453,-0.446048527759832,-0.8424962440793382,0.06606725066884014,-0.30516920221327826,1.1112782609341136,0.6695161524036588,0.7360751006058494,0.286899146283394,-0.94120012258907,-0.853421223778007,0.9879310097780921,0.07053225093093586,-0.12416817151453227,-0.6191604004065593,0.062100887298583984,-0.27187177538871765,1.9645797653822563,1.7479102239201554,0.5648037791252136,-0.12412545084953308,0.08600469402344757,1.9421748886167662,1.9680823227121442,0.24195950165668717,0.43624358730509544,0.6643591606760018,1.1540825946543174,0.8809489340034133,0.25709732752987197,-0.3879503791407962,-0.11467085416649196,0.25787602315217134,-1.3187500915248185,-1.7733359890113574,-0.47250526989370545,-0.9284995809493266,0.6678707771760588,-0.22155649219317505,-0.5648808804518902,-1.19236973247456,-1.1152676343917847,0.9281436800956726,0.1075606186474429,-0.37272025722644825,1.422180414199829,-0.36692681908607483,-0.21872270018254894,-0.705661008916415,-0.6772955356627356,-0.6325381192897692,-0.3405553784443261,0.2532335846278798,0.2943556708395861,-0.5621931433771136,-2.015642974468573,1.1792833336942132,0.854067988500563,-1.000238210189984,1.278326786559827,-0.16882506133555084,-0.3950829488823361,0.8417243153896812,-0.32193572581887964,-0.35535158473196193,1.301754832637401,1.6054068816883325,-0.02450929768383503,-0.5481937527656555,1.13717542833378,0.4063924588259041,0.3009103238582611,0.9716915488243103,-1.2929561277907948,0.39614263358776775,-0.796482655137557,-1.2126702251270136,-0.5839423508886049,0.22260076524400232,0.0100763547067561,0.6340177191768418,0.8930426741727953,-1.2601070744601193,0.8523538777524036,0.24312072798069076,-0.28695604205089,-0.6966314782233308,-1.093553845368281,0.05011268751756094,-0.36051615457890557,-0.7657127443858659,0.9573487817893696,0.3579635429251116,-0.5811589956283569,0.1369895339012146,-0.17755514194671182,-0.014848410489487108,-0.39639633893966675,1.007959246635437,-0.7107730594736984,-1.1434093424028213,0.13644801076858376,-2.1645347788456433,-0.13265070221024514,-0.6963297581141635,-0.037256273421487816,0.893505385467866,-0.21459150485653936,0.733961464549565,0.40893313070439713,-0.17288769095358214,-0.9528902572303268,-1.5777688204654448,-0.07047622416756465,-1.6260088214899067,1.104215603450429,0.944713394953471,-0.6505384163757894,1.2084836392503693,-1.8225104808807373,0.7605471014976501,0.7311747504211387,0.8027530914379474,-1.2887200117111206,-1.4692426919937134,-0.146181665321,-1.2932528188558317,-0.8005016123044516,1.520615813774062,1.5739346089447124,-0.605560545616837,-0.6518229780879264,0.14940486134746375,-0.9393877962389994,0.6870696192887605,-0.29264927697470394,0.007678611550981785,-0.398430494783194,-0.14848225809513171,1.0338526402474404,-2.2514380991519225,0.2954158616742952,1.579766544839941,-1.4348176382133997,0.5716652857122992,-0.1950327306985855,0.3317951560020447,-0.6910093557184195,-0.5115941614817059,-0.7866616249084473,1.09018874168396,-0.05742701020724072,0.1560692076537689,0.3047363575268298,-1.6224717555245303,-0.7447899745446412,-1.2403004101009998,-1.2260720525373947,-1.7555954618974432,-0.632216867220338,-0.763200177784619,-0.317334660233235,1.7069011982970905,1.6529741737797299,-0.8612701184498208,1.5957397668144966,1.0710484394378128,-0.8138021812293659,-0.6271033761826008,0.6566047970066554,-0.9095358436938554,2.5350992679595947,-2.0445053577423096,-1.0807544139991059,-0.8997053390446976,-0.6741605997085571,-0.7486252784729004,-0.7090205248484098,-0.29614680256762826,-0.053780256144215714,0.30913224130014216,0.7131212220456468,-0.4007168954423197,0.17951149122846838,-2.78044413365888,0.29270065026648107,1.1658868673284972,-0.373065575208955,-1.9602345073410978,-0.6944496316009312,-0.27289624207142266,0.8218288304668884,-0.8175156532930924,-0.06162152870467531,0.7075506194541062,-0.6672144252742913,1.432001838808006,1.0509754419326782,1.7762893438339233,-2.220085632772959,-0.2310208072167744,0.14720365405082703,-0.03385520726442337,-1.4328663362032918,0.17176087312371055,0.1650020021279151,0.8064361511951591,-1.3381857144269345,-0.022416837900894306,-1.5090167389331453,0.23879445675435207,-0.23705655091663813,-1.8116052296681653,-1.2074886766775947,-0.5597146823386654,0.9505270816677717,0.32533132075702803,-1.4401574665713506,-0.6085287880590449,-0.016875677240668314,0.6944579551095393,-0.40274667117523616,-1.55999697590076,0.7559441924095154,0.15290723741054535,-0.43556124619262154,0.6327862018010316,0.44316577911376953,-1.1521804332733154,-0.19471660760937046,0.09840252857566724,1.1980641587735814,-0.44320815284313564,0.9449636024324984,-0.48710219292431844,0.3777768763420301,-0.8152780161686007,-1.075707073930712,1.1109944156617109,-1.131109139957526,0.9526719107798981,-0.1076545144531668,0.536648413029176,1.1588321944672177,0.0627924616993725,-0.5084370592759964,-0.5790115163828283,-0.6680967067207654,1.5375368968770395,1.3147553205490112,0.9139618277549744,-0.6958212736620362,0.9115913590700265,0.16538673639297485,-0.24149711430072784,0.9142850819424255,0.13621929987782616,-0.2643351814693873,-0.036995342866080826,-1.1663288602180875,-1.2776382708592102,-1.4640599800688128,-0.05119202759475065,-0.3121747814193768,0.5985535829842248,0.17591511130990173,0.26380490043369836,0.8423215249361156,-1.2220685528919997,-1.035962127656446,-0.8669845239528005,0.5119914709689507,2.1681292758008515,-0.9132687575297966,-0.25345267294353996,-0.09795316308736801,-1.2665634155273438,0.04373947504937844,0.9468317859125851,-0.7395747303962708,0.14445112645626068,-0.7982994398083915,0.0066815303661332676,0.6422368185694749,-0.8845753423763626,1.803543026190708,-1.886351069978962,1.342914030946621,-0.8175230756575586,-1.257882967887763,-0.9833504570418699,-0.41114390900240927,0.07754510945193817,1.1997592324921742,-0.48948040781420127,0.8181033604541276,0.9127166246727801,-0.16020819610687065,0.3114279642053697,0.4433243475462704,0.7670181421444616,-0.3280993402004242,1.0306529998779297,-0.8414271081960758,0.49329569030559994,-0.3353613615036011,0.7424928545951843,-0.8962097734172114,-0.6635532593035882,-1.0026154679299475,-0.8621108619993721,0.968353406167089,0.2830805306496632,-1.5987024278515771,1.1587179651991735,0.08928925892872903,1.326751732751878,0.5518193844652984,-2.111766673440271,0.07282310938789839,-0.6367022896165905,-0.36143139737100266,-1.4003139581722026,-0.1002046443823073,2.5292817658826494,0.9702375923910443,-2.714064411178598,0.11482679843902588,1.699347734451294,-0.11789277049607295,0.5960184692526352,-0.469448059797287,-0.7136334776878357,-0.21809321094405323,0.30262916605054085,0.20462835054773765,0.614036549351034,-0.18292196710874323,2.1566420429447226,-1.7512217367518161,2.3213293964008215,0.16754099772416797,0.05307824424264273,-0.48137577775680435,1.1960410296583264,-0.7617620827556622,1.069309579272263,-0.5183502692412291,0.2122537839022775,-0.8121359438337653,0.7986955184876566,-1.47271893334286,-1.1379877866034371,-0.38267746567726135,-0.15661346912384033,-0.39464828172274724,-1.0846486895889826,-0.6348688006401062,0.3055638372898102,0.8131283806523139,1.0929913278717442,-0.382762009802816,-1.1545877842889636,-1.1304251571988821,0.679631791230264,0.6140721931402433,1.4289496813191251,-0.4546244496191722,0.45136794733441277,0.3524234534735001,1.1131850011461497,1.7038012557715227,0.3336765986561779,0.631593195217153,1.0509698218789438,-0.04727532394572483,-1.4482934696996923,-0.5851448267798242,-0.44805760899254843,-1.1618012189865112,-0.4868242144584656,0.19134197212947474,-1.589349806044953,-0.2268999069929123,0.5571821928024292,-0.7043551478136566,-0.6275201017963175,-0.31715390594985315,0.7581153651126276,-0.7258666699527082,1.0932702096606264,-0.07890760662502742,0.21061852482798132,-0.5348671369386918,0.819765227717931,1.4878304000497455,-1.186876118986109,0.3536843422682073,0.07840766823217818,0.20904351688440506,-0.4434483067590646,-0.32070002512905377,-0.25023509312694425,0.037458687469775424,-0.3611747452434889,-0.8238351345062256,-0.19829270243644714,1.019461559429292,1.4558917855539308,-0.7510882019996643,0.19340656697750092,0.03215664828139974,-1.2331217874390605,-0.11458714844398507,0.5976793903325915,-0.10740299996053701,0.6221316423725928,-0.017536129295046894]},{"activation":"Sigmoid","size":2,"biases":[-1.1267512610250556,0.2353479136445334],"weights":[-0.20020435180646493,-0.5005752844864592,-0.10118704932729385,-0.6347446812966444,-0.18702345079324637,-0.90384897370928,0.7035802277043495,0.7448230281109046,0.4524018240673087,0.3972579696079481,-0.2236903614777041,0.15467332352420607,0.08126174501394086,0.4858414903785829,-0.8112804327549354,0.3366819975937314,1.2456474014195849,0.40571687556416,0.02166504967692556,-0.686115597925445,0.99955565628713,0.5708217429419208,-0.18254045739700026,-0.7875573230840179,0.9946686576360115,-0.6625281241203476,-0.09196765065051694,0.2291703761351419,-0.44439850132660536,0.28922723655201643,1.9981400071425655,0.5764141526542857,0.09527153733767778,0.5821908725361615,0.35502176964773907,0.7309845537222092,-0.36679332392200964,1.7961448391698038,0.29960950312420764,0.40997971732904404,-0.09586729929333772,-0.0027073151977502216,0.2497418704495128,0.9726205108176503,-0.5072898104199294,0.05202711516184423,-0.24677045144260487,0.9483042797293225,0.1791527305693306,0.31056828961448707,0.7446436569365886,-0.04167743158534097,-0.8589065381094737,0.3418505743559533,-0.13967458480475675,0.32066463233923076,-1.0987233191098589,0.9798226506845655,-0.9826309156131202,0.3992806014065089,-0.4695956642075374,0.03916317592608185,-1.4820975838842592,-0.21140991291170896,0.20153879772742117,0.537099506059874,-0.8789722545872286,0.341691958688879,-0.06580799334652244,0.011001863627528845,-0.06428442569619375,0.2901757435415328,0.44447451199117255,-0.007564931592312472,-0.14352666564936936,-0.18041751039294762,-0.9601396526006353,-0.19600525170929328,0.18200852849865748,-0.7565677253005035,0.3399732047733718,0.49699648091460996,0.3416253919447711,1.7275675033449298,-0.4090310890153105,0.5928087294179092,-0.6117609961838838,0.11200913205554329,-0.06886448471154075,-0.5330075688778868,1.2727499558576305,-0.7129177853250002,-0.3247947643505294,-0.0975638958419901,0.06210706994290925,-0.4034689926588605,-0.1432275549293027,-0.29447969306091415,-0.2796450714464733,-0.12105160513420488,-0.7452856796622258,-0.27959184758766126,-0.009633921501032258,0.7351613273066084,-0.6151074693540041,0.13619612634494535,0.06487449619726779,-0.9425662702078035,-0.017080628205714724,0.5057541745963887,-2.0414223642432763,-0.30183351098574646,-0.6365858718783213,0.447242793770923,0.1698942423884884,0.16917166787951063,1.0594883071096117,0.6332450993868878,-0.6374050937886084,0.24963704708179607]}]}