{"inputSize":26,"layers":[{"activation":"Sigmoid","size":40,"biases":[-1.674787748740864,1.1239468379193573,0.26895600950825277,-0.18590036194764528,0.477657917081458,-0.9256904606555055,-0.5278311378029834,2.0957901736517957,0.8262840255257242,-0.9693212562579335,0.12438505523162033,0.057821207334969496,-0.0929660029355047,-1.0408506092283338,-0.8937724632894516,-0.1136086285595161,-0.8426669501899423,-1.7618280164753877,1.3619302100242556,-0.5239646209252954,0.7340015410367953,-0.682128041429331,1.3518513737750566,-0.0019357022362153304,-0.17665091819368203,-0.2738956020966182,-1.1193358914231089,1.6616610486580823,0.519704330841412,-0.37521115410091543,-1.3889414917237164,0.9127268612957945,-0.30415061955480927,-0.19889102607071113,-2.1748479590191048,1.051472037099947,-0.9198741974687791,-0.26923566443718366,0.2047466219231075,-1.0216058405323436],"weights":[-0.12029271689625079,1.4152821523309522,1.172143650917841,1.4899324178695679,0.6458414793014526,0.730936586856842,1.4581071138381958,-0.14477165043354034,-0.5512118339538574,-2.2321813106536865,-0.5311661958694458,-0.3099035322666168,1.4637196063995361,0.08682523667812347,1.5102519989013672,-1.270338773727417,0.11770850419998169,1.4899506568908691,0.35819780826568604,1.0726120307799012,-0.3362782559239327,0.3177053764036984,-1.3372767978726312,-0.9896961275356254,2.1349724288930765,-1.3421099671589842,0.17355894388567172,-1.4028646470975121,-0.4797733920783646,0.3447068929672241,-1.2292872667312622,-0.6159664392471313,-1.4125711917877197,0.9132776856422424,0.3773913085460663,-0.43402624130249023,0.18084724247455597,-0.3813336193561554,-1.6649428606033325,-1.5719400644302368,0.6975550055503845,0.21700237691402435,2.0825183391571045,0.008390959352254868,-1.6043097972869873,2.129105098314046,-1.1354378620326477,-0.3763028596319648,0.06040497061061702,-1.6332643037117622,-0.8245904508960175,0.2504752202206937,-0.13979940186764975,-0.5835718187365645,-0.5298746481749412,0.33064916729927063,-0.16496998071670532,-0.702705979347229,-1.010309100151062,-0.6554253697395325,-0.27402591705322266,0.40041878819465637,-0.7648773789405823,0.7032654881477356,-1.6761219501495361,0.3250262439250946,2.0365779399871826,0.6932682991027832,0.33493056893348694,-0.7719515562057495,-1.5669547319412231,2.3432717086177197,1.6892189758937557,0.2509475414021252,-1.158676954965593,1.833856210964341,-0.3691146021944258,-0.9872444530714742,0.5427232875064737,-1.6885843407905001,-0.20285028681317904,2.2207870483398438,-0.7533240914344788,0.27601751685142517,0.051558274775743484,-0.15325511991977692,0.747081995010376,1.2288612127304077,-2.221278667449951,1.9655817747116089,-1.404088020324707,-0.6733717322349548,-0.5882099270820618,2.3730883598327637,1.3865699768066406,1.2946032285690308,-0.8344915509223938,-0.20127548175623505,-0.517349318223208,-0.44512603908886533,-0.7225713845082085,-0.2524704939648454,-0.19436781124287317,-1.0083422378822455,-0.8396147152374042,0.5403372668121064,-0.8101377320631289,-0.464615136384964,-0.45925527811050415,-0.29885125160217285,0.6933813691139221,-2.067439556121826,-0.6148053407669067,-0.0551702044904232,2.1685829162597656,0.4066973328590393,0.05785498395562172,-1.5856214761734009,0.07085767388343811,1.449169635772705,-0.7413638234138489,0.3365153670310974,-0.06521212309598923,0.8577051483209378,-0.15507749763301681,-0.19175785263027167,-0.48248294382438195,0.7699984273403933,-0.6281392355280949,-1.7593391508468577,-0.41246975207569886,-0.5704009505885604,1.2820118022858633,-0.6830587983131409,-0.8579939603805542,0.9922617673873901,0.7874366641044617,0.47434937953948975,-0.11042682826519012,0.8075674176216125,-0.03597346693277359,0.3265203833580017,-0.39348793029785156,-2.35155987739563,0.24002718925476074,1.222743034362793,0.47290998697280884,0.6983802914619446,1.5222846269607544,1.689539630478176,0.02184664826841173,0.008586120111109747,0.19363472473448093,-0.48376462970818274,0.19354481619141284,-0.8825552944872924,-0.42049488071646496,-0.5512534763370256,1.0011919133014107,-0.10177404433488846,0.00702584208920598,2.804237127304077,0.8727518320083618,-1.6478272676467896,-0.4802756905555725,-1.555798888206482,1.8804224729537964,0.37175729870796204,2.3114001750946045,-0.5732176899909973,0.7931973934173584,-1.3734163045883179,0.7106543779373169,0.07597056776285172,-0.5775908827781677,0.09020257710416513,0.3596886163241111,-0.7361951747295207,0.19152901186079355,0.4626506589531317,-0.7674438949727443,-0.1925408846405998,-0.043543499609941166,-0.9932788683919204,-0.5025388844769973,-0.1979759782552719,-0.4205613136291504,0.3446408808231354,-0.9970527291297913,-1.4836457967758179,1.682368278503418,-0.9023942947387695,-1.4475573301315308,0.7558096647262573,-1.0710113048553467,0.4222673773765564,1.5183955430984497,0.1719249039888382,2.0418972969055176,1.296555757522583,-1.1204121112823486,1.0103170584359906,0.318480980540122,-0.7589193438585143,-0.5251373116138716,1.4023676715660092,-0.14960870031637633,1.618249561431035,-0.5809315700743936,0.22313216267392505,-1.062624307028018,-0.2397395819425583,0.08438615500926971,2.097151517868042,0.1933175027370453,0.04722168296575546,-1.5745460987091064,-1.6710654497146606,-1.334944248199463,-0.4693819284439087,-0.01195980329066515,-1.1390266418457031,0.23224708437919617,-0.2250150889158249,1.203170895576477,-0.27862247824668884,0.20320771634578705,0.4519373010788103,-1.2199865489834134,-0.7620247478726895,-0.1554114755913982,-0.2490940000631874,1.3948327204941384,0.38329109988180327,0.11823061330542048,-0.4377720899815519,-0.37797326513345014,1.1824525594711304,0.32032468914985657,-0.2209748774766922,1.616302728652954,0.373779833316803,-1.611306071281433,1.4906059503555298,-0.829089879989624,-0.8883599638938904,-0.17556938529014587,-0.15721696615219116,-0.5218299031257629,0.11605995148420334,0.144089475274086,0.835684597492218,0.39996764063835144,-0.3907613530804766,0.2183529381540669,0.3049048633843968,0.4905405847447807,-0.7418144108552193,0.9175776710694287,-0.6120761351067244,-0.5117381819728869,-0.6383032202487642,-0.08537194107747578,-0.37081459164619446,-1.038554072380066,-0.3253505229949951,0.2047162801027298,0.5210602283477783,0.3581599295139313,1.9163151979446411,-0.7894022464752197,0.715012788772583,1.3553574085235596,0.24084806442260742,-0.11696608364582062,-0.7306110262870789,-0.08510712534189224,0.027974596247076988,0.21325403451919556,-0.58590843902946,1.0233663307466794,-0.08540018124805589,-0.029797260186293247,-0.33299923230024275,-1.0936739915482478,-1.466146286499929,-1.2150383046202893,-0.29274025376399887,0.7204453650425747,-0.3590349555015564,-0.15386345982551575,1.9782840013504028,0.6185044050216675,-1.0980135202407837,-0.10382891446352005,1.3531646728515625,1.5784118175506592,0.35405102372169495,-0.853706419467926,-0.10874374210834503,-1.1581859588623047,-0.4258902966976166,0.813692033290863,-1.0727579593658447,1.6528009176254272,-0.9168537359890355,-0.5329522354899108,0.8998034080093512,-0.0800569382341273,-0.15752656025564227,-1.0396266025347574,-0.3841746220088268,-0.816003165741386,0.4486663538525998,0.24661631187302624,-0.11486823856830597,0.863079309463501,-1.237131953239441,0.8355754613876343,0.34994956851005554,0.06453578919172287,-0.5308995842933655,-0.5617841482162476,1.0978703498840332,-0.8400605320930481,1.5995607376098633,0.5581338405609131,-0.803205668926239,0.6499181389808655,0.17334243655204773,0.45456236600875854,-0.22859542096802202,-0.7352211116032261,0.3430064261706889,-0.36073248417029924,-1.2086579269599127,1.68745139013637,-1.804184985870457,-0.4724037876550687,-1.2729464239412902,0.7925190013004979,1.390505313873291,1.1826777458190918,0.7469097375869751,0.35827845335006714,0.07727017253637314,1.1334471702575684,0.9482468366622925,-1.0813864469528198,-1.6099339723587036,-0.39620471000671387,-1.128809928894043,-0.12187694013118744,-1.7955597639083862,0.7367220520973206,2.180049419403076,-1.4079264402389526,0.0948558039643819,0.8089237689766848,1.881192687993904,0.8231346430502084,0.2584137172351156,0.008177507584641077,-1.320769577905855,-0.8843919931870166,-0.8583536358781096,1.6646810860773564,0.16243836283683777,-0.8676989078521729,-0.8277016282081604,1.6671923398971558,-0.4481377899646759,0.9376184940338135,1.0475157499313354,-0.9091947078704834,-1.1152678728103638,-0.01855648308992386,0.16206783056259155,-1.2305450439453125,-0.08359388262033463,-0.15819407999515533,1.720863938331604,-1.1583995819091797,0.00973729641418109,-2.3203503066600595,-1.0916340280155636,0.10141918743076782,0.010211807720966037,-1.352980576933408,0.8997734384859097,0.2789715605590533,0.15944761026362053,-1.5949008055435625,0.4909115731716156,0.584220290184021,1.0311156511306763,-0.2688695788383484,-0.8435401320457458,-0.4889199435710907,-0.6239635944366455,-0.8950273394584656,-0.7726293206214905,-1.0127301216125488,1.1856741905212402,0.5683639049530029,-0.591555655002594,0.7172983884811401,0.3004148304462433,-0.8169013857841492,0.14473297984765082,-1.0212112208987456,0.3311307521145356,1.4755170503455297,-0.8461309479035944,-0.7588345797060102,0.045844167422844695,0.5626802523487917,0.13527969007148197,0.4447857199388931,0.17889180779457092,-0.4033852219581604,1.3101351261138916,-1.1730167865753174,0.07860427349805832,0.7842680215835571,-0.5370427966117859,0.7988284230232239,0.3799580931663513,-0.7170568108558655,1.1742066144943237,1.837185263633728,-1.2447216510772705,0.4117897152900696,-0.6416606307029724,-0.5679319500923157,-0.7086250899548239,-1.2125335152915893,1.0461504390126133,1.301641071926264,-0.027681744103965657,-0.8806272257876373,-2.48085543152081,0.718040654726759,0.09040942196333535,-1.3580133691638683,-0.8481099605560303,0.6110996603965759,0.5173614025115967,0.5600973963737488,-1.494443655014038,0.17407505214214325,-0.7035128474235535,-0.03567713126540184,1.1243040561676025,0.08225106447935104,1.3690341711044312,-0.5471305847167969,0.1400756686925888,-0.41633662581443787,-3.2141969203948975,1.078389286994934,0.22068616301313732,-0.8126488829395535,-0.8956961136328033,0.6106946042837507,-1.0922137633070812,-2.544409252161335,0.5214512832606343,-0.49703763667023804,-1.156162909029238,0.7259990313081888,0.4860144257545471,0.21961545944213867,-0.06189807876944542,0.44413676857948303,-0.7209123969078064,0.3791279196739197,-0.9523289203643799,0.4234083592891693,-0.49914059042930603,0.38327503204345703,-1.1470627784729004,-0.25625088810920715,-0.985206127166748,0.6109864115715027,0.5089927911758423,2.281860113143921,-2.363263062752665,-2.059780209605731,0.14224661884429943,-1.2724655741648965,1.0992088855742057,-0.7893920005032024,-2.060280006497958,-0.004839942932422169,0.5330686887735616,-2.779098507139763,0.49168476462364197,0.12997771799564362,-0.46108704805374146,-0.2657141387462616,0.9078080058097839,-0.6963802576065063,1.9419413805007935,0.6564784646034241,-0.4368307888507843,0.5046846866607666,-1.3350789546966553,0.023687411099672318,-2.191249370574951,0.19944585859775543,0.19825191795825958,-0.9936588406562805,2.086519210646206,0.024890620917404637,0.5297791225246355,-1.0187230254788293,0.5142153135379093,0.40362661682336726,-1.2568540049565906,0.8213221247165239,-0.21796396122293518,0.03535129794326411,1.3404555320739746,0.9184533357620239,-1.19905424118042,-1.0989652872085571,0.45529207587242126,0.11526462435722351,-0.06277143210172653,-0.14867091178894043,-0.7367537021636963,0.6438374519348145,-0.8940613865852356,1.0698975324630737,-0.3796024024486542,0.10803628712892532,-0.0487542599439621,0.9133303761482239,-1.1843859288572003,0.5346078404128407,0.33472255202136686,-0.404797786872335,-1.3744137154085578,-0.4766394955845807,-1.319742536645701,0.33893115402125296,-0.5811793761521459,-1.9521087833422068,1.965047001838684,0.9045984745025635,-0.6665277481079102,0.2579255700111389,0.5126498937606812,-1.787509560585022,1.1881192922592163,-1.0833568572998047,-0.49675554037094116,1.0463120937347412,-0.6087992787361145,1.7012189626693726,-0.5964540839195251,-2.5837390422821045,0.41238224506378174,-0.8618782758712769,-1.1376781674269794,-0.8179983992521744,1.7902058492725343,0.03727702897340328,-0.07037321815813102,-2.1458343507368713,1.515199214773364,0.7349660305855139,1.229834710392991,-0.13230014151966843,-0.16473039984703064,1.3198469877243042,-1.5149527788162231,0.6488739252090454,-0.30584821105003357,-1.500657558441162,-0.9023453593254089,-1.2390629053115845,-0.2345612347126007,-1.4220328330993652,-1.12284255027771,0.2381802648305893,1.220736026763916,-0.21711328625679016,0.7150550484657288,-1.3825098276138306,0.6697994863443226,0.45424817232784465,-1.0411016910090087,0.6276922360373879,-0.36201408340255936,-0.3117291657631925,0.19932133830537674,-0.8328577289756313,0.9653750030135128,-0.9646026129344056,-1.1117894649505615,-0.498430073261261,-0.06686685979366302,0.02566983737051487,-1.0050655603408813,0.1659904420375824,-0.8862059712409973,0.18295609951019287,0.44313952326774597,-0.7346018552780151,-3.0505261421203613,0.35726210474967957,-1.4930533170700073,-0.4497920274734497,-0.9287660717964172,-0.526943027973175,0.6114713631434088,-0.8920210940256764,-0.8099856498213984,-0.7250879075635379,0.20874105379130667,-1.5768247967582967,0.34332727226443976,-0.6320642595860064,-1.4344603307579236,-0.333424782051722,-1.337496280670166,1.070424199104309,0.407335102558136,0.8615797162055969,0.15777070820331573,0.44881677627563477,1.2853633165359497,-1.040244221687317,1.0367915630340576,-0.615251362323761,0.649833619594574,0.04549071192741394,-1.3782938718795776,1.654076337814331,0.6015323996543884,0.024041075259447098,-1.4291938617460551,-1.290125880301457,-0.5890961758114515,1.9453911827725134,-1.4408478490099934,0.9574972569157079,0.13368693821825164,1.7141156832859705,-0.8788872416684019,-2.1163036448286374,0.9008777737617493,0.5859284996986389,0.7155085802078247,0.10026907175779343,-0.6434848308563232,1.1552079916000366,-1.5438951253890991,2.112274646759033,0.15884436666965485,0.07506334781646729,-0.6716955304145813,-0.34664326906204224,-1.146087408065796,-1.1153318881988525,0.16084535419940948,1.0875515937805176,-1.2682587516917148,-1.0607653919246511,-2.0953194390236543,0.22084609661911467,0.12930775995951013,-1.9140126173421546,-0.4410270558491361,-1.6635022852910235,0.8253857440308215,-0.4738114304451602,0.9831808805465698,1.7428195476531982,0.20274052023887634,0.18985185027122498,0.2857806384563446,0.2639094293117523,-0.558574378490448,-0.9753257632255554,0.17803333699703217,1.7616751194000244,1.3970955610275269,0.6526090502738953,0.09328409284353256,-0.5824609994888306,1.2059431076049805,0.7345730662345886,1.6600900254302147,-0.46165191325735766,0.5488985452967335,-1.805818145590157,-1.2052959810175572,-1.3448645531445473,0.43706977206718384,-0.9989395086182559,-1.372385866539305,-1.3315249239707838,1.9062397480010986,1.0951248407363892,-0.9534993767738342,-0.7777941823005676,1.6918189525604248,-1.7982110977172852,-0.31609049439430237,1.011040210723877,1.7716772556304932,0.9504665732383728,-0.5104371905326843,0.48641109466552734,1.9176644086837769,-1.142348051071167,-0.974271297454834,-1.5641248226165771,-0.05141016507475251,-0.5689688626244885,0.6471706711737256,-0.3482635547962703,-0.15320484466715303,0.033052549181381216,-1.0505677859709759,0.8695532254897269,-2.420054465721873,-1.716364749190001,0.8599742650985718,0.2348729819059372,-0.77046138048172,2.762268304824829,2.1271862983703613,-0.35224980115890503,0.39753881096839905,-0.27117687463760376,-0.30374109745025635,-0.6268298029899597,-1.2217164039611816,0.4101904630661011,0.0032053871545940638,1.5965206623077393,-1.3540199995040894,0.507186770439148,0.9758652659434128,-0.8211786302860502,-0.5805147531540343,-0.03281780026229126,-2.1978771108448836,-0.4558556506643353,-0.7837033680282928,-0.7143260002121101,-1.3365857402190207,0.4568987465776324,0.6532776951789856,0.08895942568778992,-1.5314245223999023,0.239327535033226,0.21568751335144043,-1.65830397605896,-1.0433263778686523,-0.25508037209510803,-0.4647822082042694,-2.0631065368652344,-1.521857500076294,-0.35784250497817993,-0.0717983990907669,0.40011855959892273,0.6110307574272156,-0.251022607088089,-0.8238347861695622,-0.31454912680085423,0.13555449262302752,0.5249082279345506,-1.0091151142471846,-0.5035334307715261,0.3340545101189405,1.18201314407762,-0.17103535873331838,0.9877300990672431,-0.4321441054344177,2.322577714920044,1.1386854648590088,0.4925800561904907,0.5605186223983765,0.648542582988739,-1.9957239627838135,-1.2137917280197144,0.10792618244886398,0.28599002957344055,-0.562186598777771,0.8366444706916809,0.7572546601295471,-0.12099450081586838,-0.1404457986354828,0.013378356583416462,-0.2852178457853347,0.6338373492373175,-1.7050831211876276,0.575719533570208,-0.9089765463291258,-0.35834186641524823,0.655112360834418,-1.6029445322688314,-1.436143969535934,-0.5935747572990285,-0.01908920146524906,0.427834689617157,0.2493104487657547,-0.7080144286155701,-0.5858550071716309,-0.5217342376708984,-0.34658050537109375,0.6333798766136169,0.7403982877731323,0.6742792725563049,0.6450462341308594,0.8130037784576416,0.35525068640708923,0.43440166115760803,-1.4694039821624756,-0.5000416040420532,-1.3833289917681832,-0.7745765478570649,-2.069455944127739,-1.0154940694089465,0.22745294412162176,0.41519228187421975,0.7304794610119808,-0.6664727590669689,-1.801325413804788,-0.03768950923708682,-0.5515338182449341,-1.9371354579925537,-0.8744582533836365,-0.08464124798774719,0.26153382658958435,-2.030041217803955,-0.9153913855552673,-0.40871578454971313,-1.281400442123413,-2.490311861038208,0.7016732692718506,0.7849392294883728,-0.26307374238967896,-1.2627167701721191,-0.5317598581314087,2.1633260250091553,-0.061124248021685625,1.5794652393229136,1.3627675945241358,1.1655408668912077,-0.4674820034216321,-1.0678461922601863,-1.2160576069834732,-1.7532013573752268,0.21093214080028377,-0.9962022142114608,0.1399793177843094,1.032903790473938,-0.6061235070228577,0.8765718340873718,1.2102460861206055,-2.2044293880462646,0.6191856861114502,0.2778516411781311,1.8262590169906616,0.9504759907722473,0.3036973774433136,0.3103284537792206,-0.23373781144618988,2.2087290287017822,1.775794506072998,-0.11158871650695801,-0.4447281840478432,0.3774676294099157,-1.222766439047617,1.0226101908802343,-0.29113628491514193,-1.7077437206903414,0.4889290359705708,-0.044320761460801404,0.217385797027672,0.5427216296492678,-0.7643306255340576,-1.0134692192077637,-0.9375645518302917,0.7320173382759094,0.3411399722099304,0.6021826863288879,-0.7359504103660583,0.7470673322677612,0.8025501370429993,2.0744025707244873,1.5674067735671997,-0.869377851486206,0.6608046889305115,0.9965808391571045,-1.2015578746795654,0.45683252811431885,-0.6707998396509197,-0.2197692831791132,0.2659936204265696,1.0446599089143311,0.5765333274004768,-1.9055745742902035,0.048159451745589006,-1.3463123913523096,-0.7904618520884207,-0.8247242149891992,-0.5947256684303284,0.28651854395866394,1.574521780014038,1.346056342124939,-1.5170164108276367,-0.7214096188545227,0.5470722913742065,-1.135218858718872,-0.8784395456314087,0.9635500907897949,0.42179322242736816,-0.10070185363292694,-0.09109838306903839,-0.7968517541885376,0.3307051360607147,1.6189121007919312,-0.42261491871953444,-0.5856294593651044,0.6490654664440804,0.40220232800035277,-0.18671154866060208,0.7476383562091592,-0.4063166538246971,-0.9725452447698109,-0.0999775184576531,-0.17233569451335062,2.6278562545776367,-0.5984054803848267,1.5562416315078735,-0.6155163049697876,-0.9797793626785278,0.16839748620986938,0.7982636094093323,-1.5495144128799438,-0.9942290782928467,0.3676198124885559,-0.30733099579811096,0.5187622904777527,-1.3379144668579102,-0.5618315935134888,-0.15562085807323456,0.28747856616973877,-0.7983800714271464,-0.34923434012490434,0.10708369991160074,-0.8211853859626669,-0.6771818826668038,0.3882530453558505,-0.11459650717737363,-0.4745777988280796,0.20333401335112414,-1.3401532599701556,-1.774177074432373,0.2855586111545563,-0.5809592604637146,1.6085482835769653,-1.214015245437622,0.2432069480419159,1.4096790552139282,0.08798240125179291,0.20201772451400757,-1.6893203258514404,0.255683958530426,-0.26162558794021606,0.33146703243255615,0.8150418400764465,0.5870397090911865,0.7457013130187988,-0.19693492690427597,-0.5463086670319727,-0.27961800588357943,1.6406415638373264,0.07747660838597664,-0.588354365557481,-0.7759349284867134,-1.9712718465151522,-0.9601722110770252,-0.5235772946417356,-0.29764485359191895,0.6522443890571594,-0.18695096671581268,-0.6402456760406494,-1.7670888900756836,0.911263644695282,-0.5807235240936279,0.1347731500864029,-0.7223623394966125,0.2550703287124634,-0.35466116666793823,-1.4973218441009521,-0.031799472868442535,-0.2558188736438751,-0.9313438534736633,0.42313435673713684,-1.1807478351015501,1.6011235443820986,-0.6890796185197905,-0.38657715416730104,0.2465247834994897,-0.7780606992721201,-0.4382134943440967,1.860576116780745,-0.4093823327175711,0.31108493903076806,-1.141666054725647,0.7524792551994324,1.948969841003418,-0.8052372336387634,-1.1492860317230225,0.07979539036750793,-0.16361066699028015,-1.1656951904296875,-0.7594552636146545,-1.5954984426498413,0.027487022802233696,1.2442758083343506,-0.341270387172699,-1.4268351793289185,0.7021457552909851,-2.5692873001098633,-1.3058335854444203,-0.0378668166122443,-0.8806565458126621,0.17250174203472168,1.4223347069212284,-0.1913517859369385,-0.6766792746468007]},{"activation":"Sigmoid","size":2,"biases":[-1.0532716408528855,0.49378436938745396],"weights":[-0.44286529031569893,0.29114838919470726,-0.3824379168669607,1.4370898947360258,-0.24769315916605555,-0.5276611275947607,-0.1485225262560464,0.07156143220214314,0.638318410908087,-0.19159808657460448,-0.1326932638850426,0.09565888136890402,-0.6157765365745476,0.5930417246599993,0.004747369263218407,-0.025946431021990124,-0.08421644154255883,0.40327995217913337,-0.45945701695244023,-0.0974937450157259,-0.35492900361915636,0.754142060537669,1.497613827557487,-0.035710457586852866,-0.25215304679452194,-0.8052655356194485,1.2789345918576909,0.21820445046933604,1.9503478790294257,0.26631466922935565,-0.2877841297873233,-0.304059979694241,-1.2720169445275478,0.21448509177475752,0.4429310143977973,-0.21210448415315786,-0.09774985328611166,-0.5610984986670978,0.058626054890954495,-0.16726303468300893,0.7387406683990192,-0.4885706350997885,0.9599326910809771,0.8774540739911684,-0.0035625264274466734,-1.1505112558481052,0.021087672079838856,-0.4138284598789517,-0.32492333921435684,-0.18780993967528947,-1.0718719620925117,0.45286506438914387,0.6027033038713413,-0.3532116701340875,1.3839095719780412,0.8224085948192786,-0.9306350747939478,-0.5015552577335355,-1.2967597426492745,0.45527558122563533,-1.3497497403371927,-0.36958004168270153,0.2982333768723719,0.2280037870609024,-0.4138609402198334,-0.40075428718621064,1.2156084866781403,-0.21250518248059969,1.372804254348302,0.5076953412183582,0.4105301692285429,-0.03374944281347454,-0.15082210788810896,-0.544133536552156,-0.4809644438869739,-0.9531655667695978,1.7103753627914764,-0.06382064259881944,-0.5546386030885728,0.920728885116086]}]}