{"inputSize":26,"layers":[{"activation":"Sigmoid","size":60,"biases":[1.0271414625906323,0.33225803289277883,-0.6680688608643746,0.15456319993001869,1.0758868100755254,-0.5480117897133865,-1.1994405623407243,0.865651841009511,-0.26267586491985384,1.1840628491210292,0.5307589676417054,-1.3770545151397102,0.6726781175544634,1.3071125745492065,-0.936427955714292,-0.49866759087624435,-0.7101469208501422,-0.6236001791279623,-0.9799292183162728,1.472548807339466,-0.7807971628519399,1.3928604469971473,-0.7285400621412036,0.8385054479625913,0.40902460270564944,-0.15841703943609417,2.077689326220564,0.7545050270467785,0.6385189876907432,1.155718699100506,-0.6619978168286467,0.9891975937263779,0.6564233752708184,-2.3209032045468585,-0.7023207094838605,0.15454416338155275,-0.0034348483924885945,0.1734713670706955,0.8737763967193135,-1.0037104596809134,-0.8314975984092542,0.022380611980018922,0.22818955785929584,-1.1218460625951987,0.8445536758721075,-0.3376583695679648,-1.0948998659284364,1.4109834704181174,0.8604016470763374,1.5726938072536751,-1.6354109867776299,-0.9642586761880773,0.09736918230319158,-1.0792207480076812,2.281350404615514,1.3386667237440986,1.0215790247354712,-1.6048942614507937,-0.2221925735239386,-0.9333995481157177],"weights":[-1.0761356787782614,-1.7259313046417877,-0.28540157023219903,1.1739050149917603,-0.039217591285705566,0.002468002306544946,-0.15667925829117746,-1.0097639039998594,-0.7053932097520987,0.2577767452085593,-1.0242694040871043,-1.246903778255932,-0.12704079594244247,-1.227989655890181,0.9843054122409428,0.982761800289154,0.6421165466308594,-0.09626304202613042,0.9388834803235814,-0.39938531833463253,-0.017001662835380824,-0.39908497142601984,-0.8754136614624134,-0.5896525532134724,-0.7735763097147457,0.5700401598711244,0.07700613680866836,-0.9731081720094398,-0.7902802613929564,-0.3476979732513428,-0.893716037273407,0.05783917412227726,-0.3424166315847706,0.4520138318688366,-0.18344139750206784,-0.3291785667356167,-2.565695613417691,0.07663835083807687,-0.030279018605613,-0.668381432006234,-1.3486300494665762,-0.6259343028068542,-0.16396383941173553,-0.16575633173524063,0.2127704532467995,-0.5209327790244093,1.9265590079448036,1.1327476322609134,-0.1907308556203714,0.6067919290908332,1.4278055096424196,-0.06373793160325467,1.3300368823657875,0.18285760959365413,0.5526731693238187,-0.13013696670532227,-0.8535528779029846,0.5528686353388553,1.1275661955151082,-1.294845762619776,-0.08250076368926888,-1.2488082754193794,-1.3831976346057715,1.9567969073072102,0.2576042142075008,0.2059878701113975,0.07729467253076443,0.9593977928161621,-1.5550215244293213,1.1862743265764624,-0.25773965051620146,-1.6609167699673018,0.28939839760359726,-1.573487817619717,-2.060569880899867,-0.12507500100208974,-0.42767236063163544,-0.5634343041571593,-0.0022433338258042047,0.7712322846031462,-0.16356525505421393,-0.19802029430866241,0.0999809205532074,-0.5670252390798886,-0.26784042266503355,0.7638200727144728,0.0638244654291533,-0.4043510719954883,0.7350025869461447,-1.5380311004699485,-0.13947796120562647,-0.26770215680553894,0.8081643688014494,0.8689795136451721,-1.0728453397750854,1.8412636406287342,0.3845813420892376,-1.4185524662537838,1.2427863171661868,1.3306351584470062,-1.5032398000433282,-0.44781989198708044,-0.17301547560241812,0.08801003120165576,-0.12739040408948898,1.8444561353305509,-1.486663907332574,-0.9619595408439636,-0.8092378377914429,-0.7947651675377198,-0.918235923801767,-0.9435187451894388,-1.694626917864857,0.8636521205739188,-0.07401388978851464,0.6925611060261667,0.3981871891128768,1.119107527413272,0.3405297897344999,0.46958181262016296,-0.4758271872997284,0.3600174256263329,0.33667201637524125,-0.5226379519279,0.6688437528569114,-0.7768041477205807,0.25585924605437305,0.7362558121348126,0.19512655296440262,0.5038205329557729,-0.1237762579384228,-0.7351222040891797,-2.135424990300035,-2.0877764225006104,1.315167784690857,-0.4921318044467211,1.2402490864700073,0.6893399537660381,-1.0158222479209156,-1.2180950903139398,0.9107880079679832,-0.1948096957387563,-2.4898081138846098,0.5306227732572734,-0.13077513674821678,1.085513710975647,-0.6775869727134705,-0.10911075814647553,2.792423285371756,-1.4672460351596057,2.439829068161474,0.41186051245020855,-0.010808106303489405,0.7857477371407281,-0.11057210783165429,0.6610064053923494,1.2777569138172293,-1.2100394144895574,0.49220629957867834,-0.5870798230171204,-1.3016918897628784,1.2432138607474628,-1.0003387323084252,-0.976373697923842,0.7649699868807266,-1.0771677399440542,-0.7857225705641112,-0.5460030541594663,1.2454743314484444,0.3335659833263569,-1.3650893487768967,-0.9552007913589478,-1.1437352895736694,-0.11355137018487847,-0.08040188547420866,0.37901732288370754,-0.8808402684016501,-0.39633848484628525,-1.0167540244362478,1.3350801094176536,1.1513697846644377,-0.07826334073723996,-0.5584440178971857,-1.8343848234329967,1.0997034870170121,0.4151124954223633,-0.8918890953063965,0.035555252343441174,-1.0074582910385121,-0.10915192914016827,0.3137320857838207,-1.3850218885484629,-0.42379066042675306,-1.0831124548617814,-1.3774580117961306,1.946831275305898,-0.5204650303976266,-0.010582893155515194,-0.07870440185070038,-0.35243332715308395,1.5127676616596606,-0.358586879015169,-0.2686657306227186,-0.29859508913369837,1.887850972900506,0.5264103139063342,0.862871909178691,-1.191974194910811,-1.272320510870924,0.510837678289894,-0.35850364063012685,-0.4080970585346222,0.06537807732820511,-0.056508265433189306,0.24633901836393168,-0.19544584615681726,0.9421428061719928,-0.2949681061029717,-0.9437633910965363,-0.9997666605550658,0.6184272996500692,-0.8073878959853054,-1.3404212313617474,1.023725152015686,-0.46479910612106323,-0.622657408347526,-0.2250142900413635,2.745230508963227,-0.9779251510330698,0.8462656577242099,-1.4500095437125269,-0.46577569974450383,1.6023908455456455,0.4464333284293996,0.25374805921978827,-0.5523063509596176,0.8520474613886082,-0.7550541162490845,-0.22513285279273987,-0.1771816852004969,-1.0773165095514876,0.5333172698150578,-0.7193000496912784,-0.05084360531906502,0.5693410662621256,-0.30140462874082136,-0.02433370750728204,-1.0009214046689365,0.1220936289290248,0.38025179505348206,-1.0395535230636597,1.1006685878426112,-0.514614286830448,2.15002247104619,-0.5863563132585919,0.9001440256155219,1.057414164755029,0.04764728707914646,-0.4916873253805626,1.0229016479683675,-1.204613180388626,0.4316201465697879,0.136965882069211,0.42185452580451965,0.983648955821991,1.0500290020088703,0.48085986815038334,-1.8022131534723849,-1.464346783131487,-0.14470924372329058,-1.1219836249150097,0.4296602508086131,0.5749770875695535,-0.8337733212319759,0.6178044219613106,-0.328355997800827,0.5974249243736267,-0.43158133258938325,0.42008889018038104,0.3874797696309893,-1.4272596073241168,-1.2420060784233813,0.9366945409356375,0.2524249125650701,-0.6887246904925498,0.02096068544641202,-1.0388494855135688,-0.3323146281142334,0.5853096650815465,2.0223021507263184,-0.1416417509317398,-1.0220693440234734,-0.5816289047979809,0.726939017758986,-0.7712491842385724,-0.3487416799436123,2.1525156475596097,1.1334036455245233,-0.17815314027616785,-0.5870020644721842,-0.044686903719038044,-0.7550628781318665,0.7591087818145752,-0.1355038287540899,-0.13136443458121033,-0.6047908715744456,0.2530960237927185,0.6769136448469631,0.5836748260921044,-1.472781590049201,-0.12172400263598959,-0.3690162967597809,-0.076393842731312,-0.5006698975968726,0.8794240538525936,1.2960107326507568,-0.10141566395759583,0.8990860565791562,1.0642873117897664,-0.548648179845169,1.2710682009674263,0.2283159164964407,-0.11248863279817907,1.5616421419876418,0.05304444772474985,-0.732556342112228,0.44219963033031395,1.7080339193344116,-1.4516065120697021,-0.17511910978369397,1.0843004845958562,-0.02191695955723656,1.7954277567307304,-0.3741192201028002,0.3902195741752154,-0.03561051379866797,0.24537772167089936,-0.7381615528115746,-1.6452674160117575,1.0912865412376673,-1.2653769887155106,-1.1230826377868652,-1.3217800855636597,-0.41894756092695956,0.8286161503624112,-0.7868290604422269,1.3551359083496186,-0.992220015204301,-0.8718665597745127,-1.4410204277002532,-0.9153687866464025,1.6749030266228313,1.1058050185312671,0.11481758207082748,-0.948943555355072,-1.0398460459535386,0.8761091290111962,0.9435646772669016,-1.2839353939243894,0.11880690339120624,-0.35023673886375717,-0.4927308617255346,-0.8341159230942301,0.8303862115210352,0.8593585293549146,-0.5208746247778496,1.5473374408881093,1.0136901140213013,0.4442358911037445,0.16321886347605455,0.49492437677983525,2.5294097399678126,1.2198650941501212,0.11915143662871493,0.6082911215164379,0.4437972582459501,-0.1275449902550237,1.1684104645960836,-0.13810972217912276,0.7530045509338379,-0.3786863088607788,-1.8321661031750136,0.03494594327631331,0.28861740627449345,-0.5418969463352662,0.38209766128624345,0.550253567325904,-2.128121529521133,-0.46109375559851473,-0.7363487559139967,-0.3643236902199031,-0.200079204932999,-0.6378275566317513,1.3709160089492798,1.0664026737213135,0.40983436755145475,-0.7165007004491086,-1.6870984978468453,0.6657013679624558,-0.5480446564074376,-0.08528365681193262,-0.05915849209644496,-0.3223163949728549,-2.8017527743554633,0.2683745129965185,0.516800582408905,-1.7731622457504272,-0.2239197537508318,0.9859347236802395,1.3936928936059674,1.7360904879066803,0.171218493582061,-1.168514457081629,-1.0412104946057175,0.6017784014522315,-0.3665443395289224,1.129882468837077,0.4992628281971646,-1.1957486388145846,1.4194997549057007,0.6772106289863586,0.8095437699468468,-1.3078472894245106,1.1720535509649508,0.3627661121691886,-0.9637752016676683,0.7786809571820633,-0.13118337074080486,-1.2342715256188699,0.30795971358158636,-0.2293735148502286,0.06447765231132507,-0.3639640510082245,-0.5729382693021539,1.8225503485455954,0.2682837476068727,0.34370975412568294,-0.8912261732133372,-1.5372129498440772,-2.0274924686288167,0.5754466761076813,-0.19028754176553278,-1.3148503878495512,0.0034070767069818877,-0.4346272859570402,-0.12934201955795288,-0.6289094686508179,1.216020737690008,-0.7981971630957012,-0.5385868547472853,-1.2757789037921787,-2.0940951598823525,2.0165776221769454,-0.8271610579578155,-0.3890790291384273,-0.07849241413660711,-1.0785215140313844,0.16766364872455597,1.7006912231445312,-0.9279747398099409,0.19638265774377514,0.21279423812743672,1.0142929956126887,-0.17605732259262244,2.0370199724065925,0.26307268477421875,-1.2727422799040418,0.5674198993186772,2.2136114710453914,0.43721925597977146,-0.33664123491684456,1.248268961906433,0.27065879106521606,-0.061608333319224266,-0.19408301679341236,1.348906459621105,-0.4185093325647071,-0.004254615816706841,-1.3397978312380834,-0.5953734403484988,-0.31673697771567694,0.5514226653052051,-1.5236628280075588,-0.43616896867752075,1.324617624282837,0.6129755272934784,0.045023663113418676,0.587961103708796,1.2175814924742177,0.7457739917826305,-2.2326239418104565,-0.8620861841970414,-0.4767952420553465,-1.6157701845748331,1.5049542076083295,0.7105880266134955,1.5545771132775257,1.338913917541504,-0.29434728622436523,-0.3928128786478121,0.7018286196035975,1.4272319146615062,-1.9661302910682472,-0.8723018646448192,-0.012480264203975352,-1.3598718045522518,1.7112156802340455,2.2919331168172783,-1.2869290207757054,-1.2291203737258911,-1.23655104637146,-1.0916375476743796,-0.5888112217880909,0.820487928788643,-0.33660705690727005,-1.5655673515520585,-0.5004101429834297,-0.5632818740417473,0.24193413909665698,-0.7083124251763675,0.3746865370648962,0.30840832113087635,0.6639058823719403,-1.7419770956039429,-0.6219512820243835,-1.7520117596058862,-0.03336860075250497,-0.3612049217816206,-0.6532585836522482,0.623400303596561,0.29121503910940855,-1.956692159747828,0.9489597297966379,1.9763245129300702,0.14170117552330155,0.6873120069503784,1.9849568605422974,0.6085199373796337,0.9597332522814156,-0.8781668222868273,-2.2676594483783146,1.3671570299695106,0.7288574548495146,-1.7465250712012574,-0.5896749924721184,-0.04468134243011481,1.1892430083159347,0.8939419028915964,-0.4003275126801327,0.37171614170074463,-0.812714159488678,1.440743002616459,-0.520684026477497,1.728064475034538,0.19770784069682099,-0.2531579016706283,-1.6675176098612523,0.6192402370481346,1.0033149073116185,0.7586597929928562,-0.5182574932658128,0.3374626040458679,-0.21718968451023102,-1.8967032792493745,-1.3230520993499884,0.1876297737782932,0.8488664078327316,-1.029205617487313,2.253657245024958,-0.40983993237174626,0.12051447997348698,-0.1095939166645721,0.9695422223994522,-1.1861473860239986,0.576049956343518,2.2218689918518066,1.0960383415222168,-0.08557922174815744,0.4282943267980845,-1.0723891553604163,0.9351940297410702,0.16385158669723776,-0.7612811624296705,1.6629340477263523,-1.422092280119852,-0.697983254661838,-2.7784297447494315,-0.11794284731149673,-1.1851069927215576,0.01612909445735957,0.1989562796687102,0.9799715957233538,-0.48041424269121635,-0.006290912198339513,0.21816537468068867,-0.02340379026465376,1.2425140437648332,1.0307741844964229,1.602298085957313,-0.1723994863077347,-1.0436928525206117,0.3040577471256256,0.9773058295249939,-0.7657369450676965,-1.2894133649926958,-2.1170406018680055,-0.5474298866148243,0.4872185223273467,-0.1135084947917892,0.005194712535576771,1.0099569500718986,-0.2901802581061418,-1.1088444921369662,0.19717510044574738,-0.6916140913963318,0.3265339591649305,2.61734521482132,0.09442998003941983,-1.0336452412559636,-0.7338845264279403,-0.7378622327820907,1.467310578991012,0.682171941251034,-0.2692401770156645,1.0116975324736608,-0.743620590515454,-1.5247418506947783,-0.07529818266630173,0.8637967705726624,0.8645160659380554,0.8623467715355774,-0.17035677203028682,0.01162512544046872,-0.5531511029490046,0.8213051982623877,-1.2487620375765456,-0.6037140863629729,0.9209249402408721,-2.193699793763199,-2.9552948474884033,-1.301980972290039,-0.23332247916727888,0.45434547830142197,-1.5212775802403558,0.424132167018769,1.926854104547926,-0.4766948287465328,0.3969283360277017,-0.7706363798167553,0.5052131005883344,0.6949641043820649,-0.2259397747518429,0.3206511754869442,-0.8415021300315857,-0.317350298166275,-0.9369119421784863,0.9900394783578507,1.2159070970887838,0.3384653936023257,-0.1830058745284491,-0.47622129469463287,0.2431319297643951,-0.06156868217683381,-0.8659673482235037,-0.011622119651798043,-1.5124627351760864,0.6744061708450317,-0.016661678078773088,0.1136193591827531,1.2261821258962076,-0.821867381495404,-0.4686522183499831,-0.2897639807339126,-0.7424920836018022,0.17515392694861523,-0.025095032616651438,1.4902777654357735,1.5971660176392353,-0.18405321524722013,-1.3237296342849731,1.5171539783477783,-0.29199502476935224,-0.5153709287488505,1.2083440187375627,-1.0788356452190138,-0.31015115061145765,1.1445733945458476,0.6296571048257266,-2.0827380408826515,-0.3833726580141706,-0.1320005567855106,-1.5213851928710938,-0.9098154902458191,-0.9624795793643628,-2.4473174646537097,-0.20112921776681789,-0.9072496557543063,-1.5821289143527564,1.0160656735631584,-0.11986655110187014,-0.11826365015350612,0.12092462455405581,-1.2314150923610316,-1.3121943385540866,-1.7389869438181864,0.37552815675735474,-1.65457284450531,-0.2391405605264418,0.6492404121388178,0.33341529569155165,1.0800673946489758,-0.28880045041742364,0.13076978282243265,-1.06839354601935,-2.0273625504366053,-0.06049592566670139,0.3960049000371064,0.6775262355804443,0.4562027156352997,-1.1399546741151085,1.1745580647238556,0.4810458305123962,-1.1722252825121489,-0.14729193392934653,-1.3864490010761632,-1.1907713312147978,-1.202893970839797,-0.9260638503299725,0.341709082056016,1.4142993160374797,1.3533359273890602,-0.47095975279808044,-0.46781790256500244,-0.2565648096672373,0.4991299904176261,-0.6329680142727587,1.0825379962878825,-0.6540088903343305,-1.247066792639307,-0.05897564676677263,1.1106685847477564,0.01404347896289882,0.9637294278102511,0.731942892074585,-0.30590561032295227,-1.806378728536392,-0.728316283809806,0.14488493811710443,-0.4328414063498259,-0.21685267282995294,-1.88911407559762,0.7242421036140244,1.196609361234894,-0.6772647508453923,1.0383390512968862,-0.3748122469532474,1.3767849401933197,-0.7003543972969055,-1.3143589496612549,-1.5843517394653037,-1.0256829796346874,-0.8781487877443206,0.07765367925470261,0.18752730348436633,0.8830322771312246,-0.7830540246950847,0.18908608529738416,-2.098390771303019,-0.6086069891777197,0.653396487236023,0.08297324180603027,0.8349935400044197,-0.31443459086358955,1.3965575072671326,-0.6973200350236355,1.6468560520471185,1.5979695261812648,-0.6973123937345654,-0.1444147729095628,-0.5074040542160582,0.9938764150350384,-0.5948330347234198,1.1602557082754401,0.11090771853923798,0.25743409991264343,0.17756114031267625,1.500116554513309,0.7494444937434184,-0.4490330905223865,-0.9243905127821042,-0.3667240793948117,-0.18883973560407197,-0.6772692268828907,-1.051370860691477,1.190692670892502,2.132180690765381,-0.3411584496498108,-1.8982576142425753,0.6650196859675277,-0.8153094335985811,0.4032692389547132,-0.2664281761922298,0.42409031931130353,-1.1968511006145182,-2.5218167556193625,0.6717612966631662,-1.377645420765138,-1.1635285467011414,0.25441646691000697,0.5310272574424744,-1.192253828048706,1.048118499656776,0.43530778421222593,1.046002007117256,1.8930272920034634,1.4698192469817986,-1.1318458375050193,1.9136895704128718,-0.7846366524535652,-0.7601495485866576,-0.028219430524079478,-1.5788350105285645,-0.7590739130973816,-0.7247644087199856,0.41465095711930733,-0.6087707391379245,-1.0448976187990158,-3.0819314146774817,-1.9711659423620649,-0.4336130060708506,-0.9026459463306076,1.280778178263684,1.6780822465638225,0.2973655137331032,1.9411347040909999,0.5621327757835388,0.4985329508781433,0.5201233637360296,-0.4438806603004935,-0.43329916279740077,0.9626132381019815,-1.7738097232241998,-1.3720600661538511,-1.904009845062864,0.44727678651775876,0.20793072178849717,-1.6660732533392029,2.0825345516204834,-0.2403840571641922,-1.168542454329973,-0.622433333379256,-1.7454193959605688,-1.5549402557464371,0.7519334007439393,-0.7364331787065151,0.3203557871123926,0.20191458605471607,0.35926875429886396,0.0346657443488233,-0.28118732132065805,1.501279890016823,-1.366011619567871,0.39481112360954285,-1.7110679912412141,-0.5102768265748736,-1.8418381806044746,-1.1231109030484443,0.8208972905358027,-0.7658228387165679,0.695416726995992,-0.68799993328526,-0.08075116665356309,1.0889165348930063,-0.9910181760787964,1.3136240243911743,0.40280938461919047,-0.046953215425994156,0.3821626868736873,-1.1936137862342238,-1.010329138091443,-0.5767983499863466,0.005466111399874471,-0.5519720298919902,-0.5274016822320006,0.17336356980255038,-0.33082800213094293,-1.6852885537602018,-1.7500348091125488,0.7112134695053101,1.518425850122868,-0.46878848454761635,0.807220298232833,-1.131126262450578,0.5233355700526473,-1.5770328558707247,1.0686291858395411,1.5211961013993742,0.9101440229885304,-0.5868226362115466,-0.7607605457305908,-1.8248310089111328,0.427603810716059,0.9730763269144223,1.0517909837396233,-0.445817395889238,-0.39206899707057785,-0.3546986666566439,0.30777477693097594,-0.8872246937552671,0.10526016787961885,-0.044232135453578326,-1.726040801784342,1.5306423352541276,1.2029379606246948,-0.9066983461380005,1.770973070503073,0.7215207935795034,-0.25881610022031387,1.4168846992666035,0.19055047776647688,-0.6818511173941665,0.8082902706128421,-1.3121385418888563,1.1239658301563094,-1.4769076070097484,0.8177425861358643,-0.7764033079147339,-0.09304428156822629,-1.6278350054181097,-1.3897571197665728,-1.0097907393296728,0.6502145133663249,-1.4163483534917078,-0.9326384040772594,2.2607649426782195,1.131001404344446,0.7486436431948437,0.41456446658205404,-1.1907691414732955,1.0378156900405884,0.2533588707447052,1.6833998588586214,-1.0008347353359348,0.06707291299661493,-0.27065974889415534,-1.2798317419025775,-0.3088379152893694,-0.5950096901501178,0.13616593208069253,-1.8505613606587614,1.5246004114304097,-0.9292308688163757,-0.5788897275924683,-0.7994212121215688,0.18027360333718315,0.15342741364350762,0.9859493666809928,0.8122811263232671,-0.14013111861669447,-0.34494508478423636,-0.537614786249466,-0.9652251632341304,0.42316309658607687,1.1668175868384025,1.4535383188663213,1.6675139665603638,1.456847071647644,-0.9592003140392926,-0.2748662830116385,-0.6698062429510051,-0.5686823208068842,1.0113948603027532,-0.87650385632112,-1.7934864826050616,-0.41844145406391486,-0.6926003367228583,0.47255192823367986,-1.1773368120193481,1.0227047204971313,0.598476832727965,1.5327120462655353,-0.13200071030045082,-0.8462092932137745,-0.1012540709831874,-0.6229297525910121,-0.5620532234268814,1.4496434314960651,0.7789607752368272,1.640801282572635,-1.1130616596205294,0.10273984352742974,0.6088646650314331,-1.7562719583511353,0.9434557582475803,-0.24480614977473883,-0.8192448240326151,-0.2499150111244813,-0.30938485811078353,-0.21564295739679287,-2.145009616200469,0.2530998789404506,-0.711475277994062,-0.06465205288763673,0.2114740014076233,1.6003236770629883,-0.49325703921668557,-2.4520714626699314,-0.3375507339552534,-1.327385802703483,0.2548656350574922,-0.4271163482485583,-0.5627376296468941,0.2948278388896255,0.16054991613732358,0.18778638766278372,-0.06662374338762513,0.7263958783778551,-1.8475922346115112,0.7644734978675842,0.9991344827424906,-0.6220677148713628,-1.2275096135887453,0.3022846964260853,-0.20160311097982772,-0.9078282016824568,2.0396235405393965,-0.33565623787139814,0.238554902262816,-0.528892759987071,-0.5821453928947449,-1.8695505857467651,0.09848598314660084,0.3998627407736957,0.33996686686566446,0.36619658323351034,-1.5626335668022977,-0.3812132766214202,-0.7551803003980744,1.4145392890507387,0.5498519511540914,-1.078429555771876,0.052518289051243006,1.0885418701633933,-2.1363649368286133,-0.9913585782051086,-0.49945888700426727,0.5827739593557989,-0.39886631310795345,-1.0612929882756386,0.022566733236895165,0.14170820022258954,-0.45799373155496903,-0.21831395591921937,1.29497783861815,-0.08478520442557898,0.6735872626304626,-0.7585349678993225,-0.08003035007180762,0.33931841285121817,0.5263978327593931,-1.7028056308079662,-0.25485452676826525,0.3535069120326457,-0.5643327428142582,-1.695811596777995,0.18273974224866502,-2.336041603463532,1.5807465427758984,-0.5151951085337931,0.3486774265766144,2.05393123626709,0.47527213413810193,-0.2691905688544733,1.3390016661528599,1.6851330057446285,1.2571342179784766,-1.3190252984667936,0.6286151963980642,-0.07574213506534345,-1.671645484177903,1.7772130939099047,-0.3792513906955719,-0.1220363974571228,-1.3322010336284396,-1.6416450555860145,-0.5993444085031089,0.7197026038432011,-0.13963047582613633,1.1190940109844725,0.4695239822218398,0.6555126602013914,0.37085870040708224,-0.24167928179862272,0.13863453795420388,-0.6591150334925121,-1.0603071451187134,0.29824891686439514,0.46279813489377275,0.13019943021672803,1.7003329715087137,-0.397337008125699,2.6177409775803024,-0.3932358651783837,1.3169619678479412,2.525426230240628,-1.2122506094309768,0.34953344071156117,1.5605354309082031,0.8693311810493469,-0.2079316316262258,-0.4134903071858534,-0.1260559819243631,-0.27609842169892856,1.1825472528375547,0.37059667751224085,-0.9485622903605451,-0.7136370313289234,-0.9644804787531993,-0.9487019985977052,-0.1183401723154344,1.059703314677394,1.5927687883377075,-0.9559905529022217,0.9134238777417792,0.43538891872027874,-0.5077661629352083,-0.08193851882883517,0.056486666834971264,-1.0394275486674378,0.025346874637846656,0.14850177901032843,1.1677633101595521,-0.38833709682718226,-0.3355744183063507,0.3878680467605591,0.16959499261246253,0.5128853068504897,-1.2583899031123946,-0.650076351373751,-0.03640718240946791,1.1091510331482934,0.73430625474028,0.007952510420371747,0.989030740540611,0.04877040533798202,-0.12848414475774486,-0.01694479957694201,0.14389212429523468,1.2968344688415527,1.0129543639383105,0.01836770904455091,-1.87093168354927,-0.0698459928570547,-0.5353752148450825,0.30456859569902694,1.165656261071505,2.863390773092976,0.810415790302828,-1.2568260008426986,1.0821056365966797,-2.398758888244629,1.3699342383750448,-0.8620165594148071,1.5689828249932933,-0.3219458731824191,0.5872160444451798,0.8860950431704019,0.8359332854527163,0.11654882476727506,-0.7043017395599571,-0.3413216874580055,-0.9601021332832366,1.0822333913927813,3.120546579360962,-0.3034300208091736,0.35281029732908475,-2.266491059821151,-1.0423028609572518,0.6795168304514427,-2.777302159536243,-0.8753680810902574,-0.23074916522019892,-0.6061750247494373,-0.39385164483888785,-0.4331315100800389,-0.8046932220458984,-1.050623893737793,-0.8100889847751096,-1.739053313136734,-1.0406113800086163,0.4454399546133889,0.32177419443704786,1.2147975517430514,-0.8881845311073147,1.0896353827208294,-1.4373710480562572,-0.2560094574560588,0.37251820717555795,0.8325328379242593,-1.6825963258743286,-0.023081019520759583,-0.19460455915648067,-0.19682726642656662,0.04455905863071992,-1.3433846420924431,-0.18116722318283304,0.9534962656805354,-1.1812186452280957,-0.36650153606693064,0.4922677006012817,-1.60320868456595,0.38352352380752563,-0.7435360550880432,0.19527863568427326,-0.4937002801609309,-0.23450854433182222,0.8377721997785547,-0.8253325619201894,0.9293694427623249,0.3367329067737618,0.902128346327121,-0.6646972555829334,0.1692697149438585,-0.5550220178071444,0.8655480145259884,-0.2587425410747528,-1.0426026582717896,-0.9965843477868135,1.6898771988154708,1.045158284757427,0.36723987870665686,1.7484540829535247,-0.35758599341056974,-0.6337408127034723,-0.8425946918697923,1.6620683596427812,-0.11669915115486759,0.9510263800621033,-0.4042959213256836,-1.4843754916748009,0.3050022684891321,-0.5880032431057926,-0.27402550851615465,0.14741842849137382,2.604971878568613,0.550682897771703,0.19269433081455542,-0.8427142081554707,-1.352564283271092,0.7824113154698946,-0.4600882128187556,-0.9987605810165405,-0.05512676760554314,0.7337153483849875,-2.2461216365791605,-0.5173968220553822,0.2938263325150021,-0.4474632204897163,0.1117093466302809,1.1039426635451641,0.7021774652150083,0.8716804861996827,-0.47146313222292574,-0.47979313135147095,-0.7037380337715149,-0.6406029359063815,-1.031863396299422,-1.125432248303463,-0.49473847331072535,2.0525033191126494,-1.953761263206305,-0.6834921149051235,1.0449010008788273,0.42851755999760466,-0.616636166016856,-0.9493749842076596,-0.43848600166043017,-0.5497509241104126,-0.9027673006057739,-0.2255110038780604,-0.1626845796927764,0.12137038684219541,-0.5432450517760626,0.747807305309991,0.014687910367323387,1.2933770862738332,0.3828692541407895,-0.2595029545594766,0.5460472536890381,0.8912490606307983,-0.4549458920955658,-0.8121100634744994,0.9106162939475025,-1.1185324132854326,0.455502801084081,0.9758626298364178,0.9480869793744843,0.2740412865723576,0.24926756525944765,-0.7546114313017627,0.6866083965346498,1.207361223030462,-0.015705142228582044,0.06927438825368881,-0.9345178008079529,0.42923977089996174,-0.4985279251065401,0.9395591970527472,0.2812730065895113,-1.6889935278527344,-2.255619146098841,0.5546129184054436,0.6667853843450731,-0.009677452490134901,0.5129298669711521,0.7115028500556946,-0.06697269529104233,-0.6865655727408032,1.0923680866534218,0.32241224714041467,-0.5223874769848653,1.701007602381683,-0.804545686964175,1.6311412637660736,-0.5321045217754292,0.6589070927183844,0.31063693602465586,-0.2791631307676261,-1.2696679051289343,1.293834924697876,1.2755582332611084,1.0117567774320328,0.27430079119442563,-2.1339714784341477,-0.14351640993971979,-0.5536413366303061,-0.09889939105516155,0.7085670308533832,0.9844197084854629,0.17262962823370662,0.4207459668210578,1.2161321640014648,-0.6347413063049316,-0.4538742622903175,-0.8506244832219532,0.222361603939129,-1.2371309832375108,-0.023771585617462065,-0.6754331126266931,-0.6557577059218967,-0.6542503153172531,-0.48891500882990935,0.1837193645945223,0.42895098096252193,0.8965982060796507,-0.31376200914382935,-1.1495128870010376,1.7060665668147215,0.6418161236752558,-1.7929925804681053,-1.7542558960848929,1.1675586156280215,-0.09184656082164269,-0.04964122155172396,1.573906415259655,0.08895613088688968,-0.044936887105034816,0.17804720997810364,1.3504151105880737,1.003869287957471,0.36300072726846083,1.200820717904763,-2.0835336540828533,0.5883980075930397,0.6357040579560985,0.442490987766389,-1.9729378363561687,0.9482170460026874,1.988406239206901,1.4602251401856174,-1.5288402848355873,-0.3623240888118744,-0.6476728320121765,1.7061055379213945,-0.06737241645509988,-0.08694949900858315,-2.5041720046542433,-0.19571807775596514,1.6836843267893657,1.8194742952818488,0.6906655882503419,1.8534538581227054,0.8102491679139917,-1.0259946584701538,0.19550058245658875,0.5991660782147565,0.08749492053438034,-0.8965866361753247,-0.25905869375752405,1.183518340386104,-1.9828718536092205,-0.656861364835228,-0.2681462977491982,-0.6106343205797534,-0.4459069013678442,-1.6338844591983825,-0.734138789406019,-0.27512872219085693,0.9586358666419983,1.7892016771203376,-0.3800699528251101,-0.6253636387591637,0.12336981939293107,1.1332767588360804,-0.3765734447978569,2.6495009310915396,-0.9055904321248234,0.45320397602086737,0.3764883090658267,-0.19426293671131134,-0.4093818962574005,0.1354796289248622,0.3332143632352186,-1.6414015091416894,-1.7760295409440268,-0.06391821935749066,0.4817036291553921,-1.811877565631593,0.33847094284997264,0.8458152830968511,-1.2202846103647331,-0.4860243018032335,-0.6561951139327009,0.496834397315979,1.7057613134384155,0.1669658837367178,0.5465642001109552,-1.202750861980324,0.45729767897084234,-0.6898580876420956,-0.6872311061875399,-0.8566013993727503,-0.41678874472532823,-0.4876443293901783,-0.049278106662601975,-1.1915791034698486,-1.2982051372528076,-0.6489714627673343,0.11586806406219494,-0.4702410521683556,-0.974996885327366,0.9632574160738636,-0.8190610027115248,-0.9665418871607799,0.00214941078682525,-1.310425247892746,0.12434562331621589,-0.873792101263839,1.4522312094695045,0.4908481240272522,0.1846156120300293,-1.8201704008556623,1.3500102648775074,0.5010202366911518,-0.12539054817693865,-0.5166943918294183,1.2357093070067853,0.05601737955407826,0.057110715268874485,0.49458174626885837,-1.0844772634728737,-0.18784597516059875,0.8553617000579834,0.45891867654119894,0.628309348864137,-0.45933691548282807,0.49959625699086424,-0.5174384145907767,-0.020604026800389662,1.2290307151950404,1.085685891870985,-0.2818627635182888,0.7533836922972492,-0.0071823230119122325,1.6040404876124597,0.17005591094493866,0.5339139103889465,-1.130628230405057,0.6052995045538034,-0.0865427883140088,0.10989202205214334,3.0843913137137884,0.8982501964516425,-0.5887716756934844,0.7296944205420834,0.256759423653367,-0.20387073276021186,0.8621397018432617,-0.5303308963775635,0.1355613770306862,-0.273671903171039,-0.07165078863705361,0.6054958872703657,-0.22040373417555484,-0.39141688926353296,0.97192326228056,0.3575377033240697,-0.25174502138488836,1.0879616942162338,-0.14397013657521404,0.26752383000352503,-1.1297590732574463,-0.3734547793865204,-1.2183496543308094,-0.30736622956771076,-0.1105468681504394,1.5369624755686078,-0.3282250536863291,1.6085300128108182,-0.12616083204452525,2.2216348797278536,-0.6534435121007459,1.0402737242513105,-2.2149081230163574,-0.30016687512397766,-1.1738192143552093,-0.08429198200848978,0.3137340466416782,-0.5235961074006115,-0.4818455037716109,-0.3933781716888003,0.5666274912373874,-2.492437531877026,0.4949680586113429,-1.0060790033106355,0.0913328328309285,-0.7738778420423597,0.24344144761562347,-0.8174243569374084,0.6616642594464557,-0.6201551119148029,0.2979033633751481,0.10706371222360894,-1.0609042238159847,0.09947546022159262,-0.479963381643674,-0.39070061679790513,2.7019520877314167,-1.8026797110557913,0.07560519874095917,1.2241719961166382,1.825128135208463,-0.5620011617597163,2.2908267221252654,1.0335919296979363,-0.20080245244682318,2.3081586361196527,0.15638891265923777,-2.748478808531994,-0.6018570716383805]},{"activation":"Sigmoid","size":2,"biases":[1.0469385485460667,-0.787647840384667],"weights":[0.6479503009783012,0.7248704057431962,-1.332005022087867,-1.439791488637839,-0.9015725737992993,0.31346013164397357,0.0018400139797836873,-0.2673520127738809,0.20814208646622565,1.4458081927818591,0.8958646082218852,0.10071074649495247,0.7517772003931787,-1.337948804253956,0.8637830070328276,0.5906582349202503,-0.09395508913143356,-0.021595492762032313,-0.08203650795360568,-0.3578034810318819,0.4202015452205049,-0.36326979007916027,-2.041044052254677,0.2397651596625918,1.1171087092762066,1.358382070416028,0.6222418995940165,-0.35985046755643746,0.34267211682365784,-0.14152101935486475,-0.413814791586241,0.8256823744644242,-0.1997551225349776,-1.7109159484903387,-0.2738751122935593,1.4493484739917366,0.5375839810408549,1.1121194360994955,0.01424371279953626,0.4577288126222791,-0.838666300963515,-1.465888600116956,-1.419835978569093,-0.30196017397669234,0.0085061150187262,-0.7854446136473023,-1.133631774763555,-0.8047836393497116,-1.4773717658756187,-0.5931907840798853,0.8135585483997313,0.7682800414082168,1.3304624507350487,0.5401239781955274,-0.8857706932784751,1.036665472717314,0.028471462833819797,-1.4832369384446131,0.3776895464552888,-1.4257212157837733,1.9814064788595112,-0.8325705086430925,-1.0655977015971292,0.04745060196231312,1.7325473894094088,-1.0472188225524057,-0.18479654114887575,0.8148662370486089,-1.273347476503756,0.040161103294460446,-0.5727343025784514,-1.692481787438963,0.020686193911588456,0.24258268989294943,-0.5006384569264225,-0.0315987891325771,0.7791111345129051,-0.39427287757071217,1.0011252221121694,0.8329291529105113,-0.6542890417384237,0.17554841773681998,0.8048343531535669,-0.8101307627445881,0.03618265755980282,1.7055605455870753,0.0015421972244898993,0.7999083714434223,-0.06976936010215318,-0.012764720328861657,-0.0248775590755917,0.14477247924646214,-0.028035491880362244,-0.9368670478349287,-0.7204082087922116,-1.3042507535198147,-1.0365650973153935,-0.22921750985197217,-1.4584934290167983,1.5026691368695235,-0.07079272133395327,0.16769985106378213,-0.7645878945835575,-0.47359005888989236,0.25039608423599613,0.15104646456533782,0.6153488317499722,2.131521202212722,0.18514127640970002,0.15903037114690616,-1.2145347037843321,0.6187524369850091,0.8133133992511374,-1.0649439545009582,-0.19437487865348374,-0.009406780947602117,-0.37256349521873283,-0.04067614924569655,0.34018657525462925,-0.5748917141117618]}]}