{"inputSize":26,"layers":[{"activation":"Sigmoid","size":80,"biases":[0.37302883497757217,0.8769374949286618,-0.19042299310565555,-0.65807857127309,-0.6689572744237139,-0.16624290411089623,0.1328269311227134,1.582192186373044,0.2945426274269055,0.5591264167122512,-0.3334754518984055,-0.16863655840074857,1.5582742593920664,-0.26124657143736063,0.7075156989696266,-1.328902588523221,0.4776349974503471,-1.271691977775262,0.0255151519616472,-0.6063232233056456,-1.027749360882109,0.8099348738798429,-0.7604275406750798,0.8791458122903747,-1.072691356932236,0.06032671947888215,-0.30451727352864427,-0.7314514487541964,-1.490180220747047,-1.4710609487653905,-0.6168185756122235,0.3186848001897192,-1.0262539368737147,0.629418524800789,0.03180524483099868,-1.9061165362759789,0.18684657956850653,-0.7129864858767146,-1.0251309984388397,0.08090617842276739,-0.6467924869863907,0.9618935313972955,-2.028554753124358,0.7090426395188436,-1.0321828439563017,0.1502026519728716,-1.0001308311318138,-1.3119282337899454,0.7694617073040753,-0.6836697704163553,0.7128165650693347,0.6233358056428574,-2.4192782398967037,-1.664860789700347,-1.2263671750067895,0.32994128977318415,1.0403031566902694,-1.7614289296774406,1.3206046024429405,-0.9117953333902444,-1.2207576800855644,-0.48501012594730947,-1.9119900737659348,-1.3452819620622154,-0.9926332503540014,1.1652747892950759,-1.5650911523497817,-2.3049800248327554,-0.2059656296685204,-2.349580027059201,-0.6811049775272823,-1.2878197421411057,-0.4221313172366834,0.6358475373084126,-1.1222793094913313,-1.6459031535263788,-1.862847333136809,1.7651167761653384,-1.2991229257435548,-0.42502130235767666],"weights":[-1.1100344267554363,-0.419496714855284,-0.4096990177622455,1.3480827808380127,0.23577575385570526,0.07664409530149116,1.0947840308411538,0.9266280017130913,0.3318211756102646,0.29693385672412226,-0.3994557930181642,1.5971193124048568,1.2886377061519583,-0.001217983957742709,0.8845498401351938,-0.7294379472732544,0.8819653987884521,0.08652575267695393,-1.4507017333319365,-0.20471582001302172,0.30350957697759623,-0.563357020172825,-1.104254393386272,-0.40574558650598164,-1.0952815712452848,0.1660791297267158,-0.020447688385591255,0.03967588858921691,-1.0362732789019096,0.7669044733047485,-0.845907986164093,0.3051566745642386,1.4042503682720027,0.18615012721561053,1.5828005052504055,-1.6154079271654187,0.27767129552701836,-1.688462044668475,1.171948300745499,-0.8252798105190016,-2.50314520700377,-0.41418778896331787,-0.9818095564842224,0.7880946753103099,-0.24786636907362808,-0.505621122253495,0.81474178687069,0.11624788724483737,-0.06844599985181098,-0.1388905107003421,-0.4546653681759636,-2.2235409825850163,0.42393582509718103,-0.7433504735256645,-0.08481082471110861,0.4241390824317932,1.4205083847045898,1.1016694443896347,0.4666063260110945,1.5001418951175944,-2.5300401524387803,0.2891290759195215,1.00526528846845,-0.22498043961146894,1.0595138397424217,-0.022065619781684517,-1.2928014860905972,-0.16127341985702515,-1.3707075119018555,-0.7425343716491394,0.9183986340999278,-0.7953559757622576,0.35796297257923865,-1.3044471452481665,0.24588222073715188,-0.018445078501166928,-0.8368580706375989,-1.7937772601133335,0.0885089084078523,-1.218769132750312,0.6945496164324992,-0.32509467005729675,-1.824244737625122,-0.052507220944410224,0.8433352600170025,-0.6223251675316688,1.9621688233373786,-0.2805928680168455,0.7225117087712528,0.5587371048664423,0.07006246696482557,-0.7777868079252285,-0.34507984887090365,0.06588762998580933,1.0332673788070679,-2.052472091329993,-1.1725920606586853,-1.4468138196517937,-0.12704645118214666,2.205125270826461,-1.9821362685289567,-0.27198737226433095,0.12068721401969447,-1.0657832059197494,-0.3197483567979496,2.810253580994199,0.7350129051987415,0.14331769943237305,0.6763753294944763,-0.3841731043076218,1.316948091024981,0.6371835518333028,0.5032633759960341,-1.062596331282516,-0.16789317984811555,0.2057717794117682,0.6516991992904049,-0.4478574938790556,0.8086457335644436,-0.9536717534065247,-0.16156761348247528,1.0621103642841465,0.2885850373128883,-2.4797556562162324,-1.1818692055432691,-1.4486071107646608,-0.8388447362931147,0.4863536143098799,0.09146680482641614,-0.2007609817482591,-1.9164747512407434,-1.3132273445862568,0.3719179621684981,0.4212530255317688,0.04868924617767334,0.018813616964681937,-0.08974932781778926,0.8315170312931565,-1.2182657153244965,-0.8731768723574223,0.10010750505303116,-2.191039070011327,2.496522838959669,0.7426908441693335,-1.2170228260528912,0.4554291367530823,0.49038270115852356,-0.5086385466792952,0.5954552164625689,0.32292827498051196,0.9956443668802248,-0.4113702186289807,-1.4122651770010821,-0.048334756681816415,-0.34768113742819823,-0.5683935925171935,-0.8038002380363924,-1.0581631687003494,0.15363934267585425,0.442710280418396,-1.281970739364624,-0.46679931499807653,0.40604847560153545,0.026499642878519684,-0.6476127479580952,-1.2744680680361526,-0.3454121820442632,-0.9174259284009929,0.31443901756365095,-0.5846579870390486,-0.6012485858629705,-1.557804822921753,-0.5469838380813599,0.7450895618865554,0.07177526846865334,0.49874662879224124,0.5481691929321039,-1.3391464320330473,-0.8979132521859812,-1.3608607111047422,-0.0034755865356904904,-0.8897848345809337,0.2994619070548377,-1.6487348043839876,-0.2589010042119514,0.6188506484031677,-0.5830297470092773,1.2673574960039535,0.4610452743513378,0.7858613468140706,-2.2721154757578055,-0.11183136536529006,0.8109079970014077,-0.5332708298890131,0.9731093174387978,-0.3620628424041196,-0.8114894287747494,-0.352001428604126,-1.4228426218032837,0.8646385068867867,-1.0027965669695826,-1.5984648179908365,-0.6364851964235003,-1.660593564692767,0.6833903274390366,-1.4220140547651,0.49867001017013574,-1.9576771641657282,0.8642476710590192,1.5273455933457827,-1.088398355364004,-0.5839535593986511,-1.3371126651763916,-0.8410993463951089,1.7987598215975076,0.28131015202818116,0.9343878367562012,-0.2721021347933876,1.4604336535729932,1.147138920632772,0.10813463731615319,-0.7987822673238598,0.11051903942623376,-0.26411211490631104,-0.9847513437271118,-0.21016754728128742,1.1240165187580586,-0.3895886483498641,0.8899594683385241,-1.191562695244689,-1.881848899261747,-0.1454175606749851,-1.0494823492888627,-2.7415614824690384,0.7239511536154952,-1.6749982437055295,0.43403380505850836,-0.4556994140148163,1.6667256355285645,-0.1742493968120445,-1.5337784115368553,-1.0714121149289253,0.15598531220874437,-1.1595790570091136,-1.5765485510221977,-0.5452449107540175,-1.5185753702462734,-0.2614497948716065,0.20852971966139328,0.2620282769203186,-0.7578586339950562,0.39915860402516273,-1.9471630056589717,0.3482051452635323,-0.4116463832164013,0.7052064649330843,0.3221675425099881,-2.150503458775884,1.053235632065224,-1.2410524862563725,-1.9472743099229601,-0.4644864896860477,-0.9824333098909593,-1.3850868940353394,1.1978721618652344,0.34539124748357714,0.4508009896694912,-1.436311610958872,0.527087645965202,1.4766025922933184,-0.6471406847089021,-0.10671363870584154,0.4912674799467937,2.5731432567551127,-0.11055422791434187,-0.6074307560920715,0.5417942404747009,0.19952394027154913,-0.40639893578063424,1.3389127205346615E-4,-1.8029140937378978,0.22089704386225842,0.8099215891640846,0.11527226211253523,-1.6220235201330377,-0.46621085282047764,-1.2163666533284914,-1.4900317543088835,0.37167205492070166,1.2055845260620117,-0.8362427949905396,-0.14484494425079464,0.3688345162418204,1.4269635821391433,-2.33594930939514,1.5617587344762085,-1.8798642351500565,0.4826448832314041,-0.3196204958290576,1.0136250861172627,-1.5965422278905539,-0.0067838868126273155,-0.05371001735329628,-0.051397782860757274,-0.33647846728322467,0.6084711560065218,0.4146940630982649,0.9945251251914362,1.248513152998706,-0.6264134950749265,-0.5652054404004343,-0.6147412652242097,-2.8640118443091285,-0.43606399480562136,0.021858691751818628,-0.4031853675842285,0.15322338044643402,0.09554133169434983,-1.4038995021563807,1.6927532453888683,-0.5345035228595948,-0.16803648348342307,-1.140963145941164,-0.018957235056121565,0.6067373392777603,-0.30269443739694446,-0.7449624713044251,2.4872934818267822,0.3216576874256134,-2.188923777037846,1.0120636873903082,-1.6527902035943187,-0.15895215090457435,-0.18704907121631914,-1.2721136849693133,-0.7103026611319342,-1.2114211640953259,0.7625207174370873,-0.8786971298032797,0.182638107248391,-0.17522086963060082,-1.7955621480941772,1.0380418300628662,-0.5552911558620164,-1.2078580846174058,-0.7346734077742696,-0.7901266511569087,-0.8491456871811723,1.1602885082952619,-1.3902809372196907,-0.9649198925741278,-0.760792691905077,-0.8118055831978488,-0.22531569004058838,0.48485878109931946,-0.22237829747637305,0.2231982624589748,1.0828563557530744,-3.427134582060449,1.2447229997843288,-1.4473101260711416,1.56125465871768,-0.6004622510577038,-1.5566950373287443,-0.5054262739416138,-0.1827392060749024,-2.0518762378124595,0.37026187777519226,-1.1391901969909668,-0.6475156090723811,0.4020566037246231,-0.8731828606735976,0.5495277066291454,0.4482633554991997,-0.02633454077750404,-0.7182893619671916,1.6225559753104193,0.8797563833337667,-1.0383646448589081,0.47361651062965393,0.3519993722438812,1.27585366286212,-0.15968953328748764,1.242898991862106,-0.30095937022041386,-0.009753207190934391,-1.841157456110704,-0.8943787940325588,-1.9742212037461364,0.3638703617917475,-0.0895804041359189,0.08314733697148095,-0.6245869232625284,1.336814522743225,0.8325485587120056,0.4719558263837888,0.6566624158217714,-0.14340725318905514,-0.783862423849648,-0.6390845823643274,0.1387083141235022,0.28741101006270864,0.21569919204194704,0.37698709653275003,0.1123725228004603,2.0245168209075928,-0.08337216824293137,-2.1116477020834568,-0.06165546798991432,0.6236885607433008,0.5217010884848277,0.1878189092638231,-0.5279029084042175,0.8426441214617229,-1.725499859743874,-0.7735230534225436,-2.8002845149712963,-0.8165050005812786,-0.6550174815287015,-0.06192302703857422,-0.7844212055206299,0.6400761118937663,1.5149044378951726,0.17513108366845426,0.5160989100712989,-0.7482795173259836,-0.3725385055740461,0.18954413534841796,1.539126364165377,1.9336751888082258,0.8249538569083423,0.8675941228866577,-0.2515021562576294,-1.5348738944243563,0.5297437489978905,-0.4499190874886656,0.42531390514930273,-0.891521388420027,-0.0802768524888449,-1.3557174963364436,-0.015102497430907927,0.23114940457096947,-1.6081387690335125,0.1377247822234331,0.8920506582195057,-0.9239329695701599,-0.3438519537448883,-1.0843198269971757,-0.6158669454366288,0.05940553369708205,0.4616752582205049,0.350319431814018,-0.35319888053840715,-0.420942668255619,-1.6662174868050585,-0.1898555231502821,0.37476572359221705,0.7601282000541687,-1.0081628561019897,0.9192705415149458,-0.8131732003022548,-0.6122221092851082,-0.5230553332931118,1.7314820312160988,1.8789661473410169,0.8060230907282249,-1.0170095287014462,-1.22234662593599,-1.4015838721152332,-0.6836182681174799,-0.801576223921385,0.05027495697140694,-0.25608062744140625,-0.8501100167974618,0.4447274002445022,-0.26840393284872227,-0.929822038018898,0.5279245008189821,-0.06259340623970916,0.38451952941218975,1.1152171957498644,0.1953331941455412,-0.1454181726657193,-0.257755845785141,0.9524019360542297,-0.09258994526322878,0.3078694477977315,0.369849317513985,0.6255392573028223,1.3680611913655023,-0.8187097095253251,-0.06234535263376173,-0.030388141828141573,-2.035345361339921,0.22746793440934718,0.5856349222771096,0.374001255999559,-0.17298541963100433,0.8065018653869629,0.2473600210330575,-0.18300992421251291,0.17362223197063578,0.26510545448272643,-0.3709624257203698,-0.2364677005015958,-1.3400178309457966,0.5383788827987239,-0.16779606575755257,-0.8012990839242642,-0.03735009953379631,-0.32513877749443054,0.05917204265695069,1.5865207165090602,-1.4137017774097909,-0.27125082901245984,-0.7928015214945356,-0.7156192099806293,-1.4478594516662233,0.20515109071531107,-0.8722352708408975,-0.7018261957098647,0.7034852832094673,0.32970454309087055,0.3120328485965729,0.4421358108520508,0.43587073087450945,1.1491413334404936,-0.20459269622381368,-0.5548118955855386,-0.25349770420264744,-0.3533580120690697,-0.5597460231138585,-0.6774231673509403,0.19539764018782863,0.8262279753104707,0.9991270303726196,0.6858028173446655,0.20842814550981326,1.2279929716165634,1.0688950645234496,1.0218843672927969,0.021395865455611333,-0.0670832769195367,0.20736366311086896,-1.9869665746415286,-0.9233259923505375,0.09313320665261063,-1.1846203910017181,-0.4364140355593728,-0.32893455028533936,0.2124965339899063,-0.9637825105580747,-0.42636412852779776,2.094778546671851,1.0170482975520923,0.588420997926423,-0.17378569339542363,0.3032335752084415,-0.20937454300461328,-1.1279806875429084,0.5639499201806362,-0.5552053451538086,-2.6013057231903076,-0.5813508704268296,2.4635278893560115,0.7168489470393715,0.23571008808761865,-1.1427779709671946,0.6994594673980189,-0.6441530418001974,-1.838281853881692,-0.8338523261472716,-1.8460863438269028,-0.13605069391898167,-0.7058214248170859,0.9264131784439087,0.18435537815093994,-0.33656886794929813,2.562395826106173,-1.2512755693184818,-1.3031372832221215,0.6890200803012665,-0.3697884840817445,0.1679072912720339,0.6191851310022045,-0.4355771223246165,-0.8503054448507078,1.0167375802993774,0.7996474504470825,0.0388567188711525,-0.3118869578938461,0.6041538418736468,1.9796365134382712,0.35425375495448697,-0.7266035746383229,-1.4961025250590285,-1.5139879894329642,-0.21357528408571383,-1.622916738474184,-0.4807457543922581,-0.6113849911066112,0.6376147866249084,0.9379600882530212,1.7026428889680214,-2.730765883394275,-1.526770347712176,1.3209924441856733,-0.06045088771318584,0.6615532673468993,-0.8946228379106245,0.8625424332227648,0.29937817805844136,0.4951972553834903,-0.8189536333084106,-1.0477699041366577,-0.5714577537400598,0.3370193493002261,-1.2244160059295979,0.8736357321550071,0.9618692736415811,0.30593896951797506,0.1950346606293004,-1.9004352007901157,-0.43285255760697067,-0.46971565001706306,0.2102740363698717,1.1829103265400236,1.2667583227157593,0.227532759308815,-0.3369674639562336,-1.3919122439929776,-0.284047525896916,-1.0241658597480514,-0.49785781619410985,-0.8733811430623961,-1.2285382025424303,-1.8687795865558703,-0.6990161715889072,0.5903129344159592,0.5432476997375488,1.0476343631744385,-0.27517575857116755,-2.2631758890673654,0.21275368627193342,-0.8599658732781587,-1.1307065055243422,-0.4511765122858615,-1.9489674182854244,0.7227783952333425,0.1312360271634425,-0.3191561388688064,-1.6607770286814303,2.144392712642806,-0.6512342095375061,0.04979971796274185,0.3976598749606174,-1.4557028180177258,0.5127777041285482,0.3323603954666343,-1.7972091728829864,0.10721670799626162,-0.37771408987866906,-0.6002719177862672,0.45803677890640054,0.7531550422811077,0.3430086076259613,-0.7168775200843811,-1.2976294139433078,-1.2031532991803067,-0.2847368730087764,-0.2807079215773024,0.6494918516782249,-0.14069703363297636,-0.3665499933045629,-1.9241095381126574,-1.0200397875291893,-0.6566656904639069,-0.05148058379070387,-2.203757270278634,1.252752661705017,2.358637571334839,0.7856259739015384,0.4339647196136796,0.30129922862257796,0.39476231463403216,0.12826543896874038,0.3700143245579231,-1.5232990169598035,0.37268883127232927,-1.475443962867595,-1.664458443447815,1.188714623451233,-0.2836698293685913,1.554446471166105,0.1327405655120311,2.550821626451266,-0.47996357035071185,-0.5588763940240695,-0.36666216640992416,0.06095164935480747,-2.502531134022644,0.9634906326808158,-0.6138435865788004,-0.11130476702128085,0.8559808708137597,-1.167084813117981,-0.3201074004173279,0.15053702364470595,0.04627429869455491,-1.9288105373145423,-1.1550001332233009,1.496611792866208,1.7432849540106505,-1.0234228568186794,0.3925657839891457,1.8451748022120131,1.0455391573932713,-1.2737505435943604,-0.3181484043598175,-0.7877038150862147,-2.0207382142668595,-1.3708419079141487,1.057620691215044,-1.824741127805125,-2.1115472101267767,0.4458899175377329,-0.5383346445019651,0.6580139962846403,-2.283516033940128,0.3069704646331553,-0.3970515567672581,-1.067589521408081,-0.19910091161727905,-0.9621604431721548,1.3855114564396969,-0.8291221813641408,0.2952283819354999,0.21283122921080555,0.8993892778325209,-0.6043239867396867,1.2744907539896253,1.295588005678739,1.222828061386929,-0.22184525430202484,2.39544677734375,0.7530712609112045,-0.4837614958278715,0.35354068304733405,-3.053155350606759,-1.9770021348096767,-0.12776551341529893,0.7185142373889514,-0.027137178706608558,1.2630401584429873,-0.5649834683455217,-0.8788929922718697,-0.07588684307677192,0.8649951815605164,0.9736797213554382,0.9558632802565558,0.5810737759685519,0.36795040777090005,-0.32177790439604637,2.990247175860538,-1.0732639600355267,2.3623616696659693,1.5061619663064634,-0.07066873293440047,1.2557288553578816,-0.6394352912902832,0.8071622252464294,-1.668483808707025,-1.3109769510914264,1.5615901050993477,-2.2502322205588072,1.6829561330365148,-0.6376607321621548,0.6182370876474031,-0.8244863029342963,-0.34779420109839027,0.14552456760299684,-1.2258171171829024,0.4250413155808199,0.19958893954753876,0.0211052056401968,-0.07419663397098723,0.4166811614165266,-0.377859000446758,0.31496092914373086,-0.3177323166343696,-1.3623054371123446,0.7047384617194044,-1.4599851402277877,0.4891389767769313,-0.3044213404746649,0.9019919037818909,-0.24994978308677673,-0.8969885255098273,0.5180068159118054,-0.04819902384621994,1.3055356663282607,-0.006204005324351815,-0.06520496116710614,-0.13371470617500858,0.04096466208401859,-1.6810658653754917,-1.283821729246198,-0.7625406545184406,1.4817840154416704,-0.6847739815711975,-2.304713010787964,-0.26366080628471944,-0.5798398051554902,1.6606069466269908,0.37921749699842894,0.2966335716844076,-0.5834160337426552,-0.23861871428173628,-2.5234402110863314,-0.08243953295923744,-0.1542361245787598,0.6912460923194885,-0.6321702599525452,-0.9208755799832781,-0.34575620510021177,1.2726643326832563,-0.16640764644918227,-0.05046760174938629,0.9924384700502726,0.5264974831953404,-1.4838772652633072,-0.64874890884821,-0.9162374968905147,0.7575983432380986,-3.982037772530312,0.774020254611969,0.6431974768638611,0.18647328016320502,0.7452150716307916,-0.034136930337316546,0.44971407785435463,0.43947835856994627,0.36508945704047896,0.19904809526886277,0.8601661032109458,-0.5153267097767669,0.2744692827626105,-0.3215469419956207,-0.1549679934978485,-0.08419503359409423,-0.20485296546385784,0.8071302904441111,0.05006859002695924,1.0137948570558986,0.5215209371400797,-0.0660297803813329,0.02848654474942381,-0.1701042888637589,-0.7003505333094534,-1.0347474171137294,0.36801567910382454,0.4601286053657532,-0.5338848233222961,1.1835699861642923,0.5353285639521229,0.16001667854624937,-0.1655034744526432,-0.24639175234574628,0.053968708514552655,0.5474268172110547,-0.05023826091145443,-1.2976504797278448,0.16480551577272212,-1.1356759071350098,-0.9722294211387634,-1.7310720560844537,-0.5803790059625906,-1.315020894958908,-0.20109071223354005,2.053754707186423,-1.1332866149081304,-2.068014813020154,-0.8449905115099617,0.29444300049115535,0.07482484568352238,0.9711393158351974,-0.8931843535992985,-0.9269270300865173,1.9600189924240112,-0.018318245399233105,2.216622176662199,-1.1558020144822785,0.31052072848077944,-1.3788042574520167,0.7275161074917662,-0.48483104727402415,2.214858847394224,0.9982880882983398,-0.2939404699384839,-1.6465095281600952,-0.7539883255958557,0.4830211602005172,-0.5423746974581098,0.3274955043349313,-1.8699429835828012,-0.686884027968659,0.5752046845008181,-0.44316595681012005,0.17859974696108707,-1.7138467345715276,-0.8207035023362633,-1.3065459348016706,-1.0331010890847683,0.3715858459472656,0.8151957988739014,0.32415394267425707,1.3232381223053675,1.5882313343439876,-0.17277295697258477,0.37504259890447783,-0.8428333754591321,1.8895556560643112,-0.4709870336384547,-0.3150472414064721,1.5072065991742385,-1.2251402139663696,0.7228332161903381,1.4248257447757928,-1.167605351495832,1.3704316561648702,-1.1901614901295143,-1.1762579831830269,-0.8930900394854097,-0.4474660856216246,-0.5236003532197234,0.4642407526571111,-1.3285307102249408,0.5619001134815259,0.17735442550856742,0.4173281192779541,0.6668115258216858,0.2171650946718068,-1.2516328854102376,0.23085786345735657,1.5842354561178185,-1.82388804525091,-0.11743245172604759,0.8015952089526677,1.2440775620869013,1.4701850695593783,0.7034089470761675,-0.3368062674999237,1.148685097694397,-1.4231499980454156,-0.48365648380665827,-0.7658800080625952,-0.29339653834274015,0.3115985324636949,-2.656641375946858,-1.8010783971578035,-0.2958068003169788,-0.019839675498127353,1.0464356347401018,0.30729610322362005,1.094164277931697,2.7119157314300537,0.7588371634483337,0.2336062626274224,-0.9419650980159022,3.0155297620297627E-5,-1.1722007664053198,-1.2907579712608397,1.0703927966798827,-1.5987868433231467,-1.098379650874016,-0.3549392728101154,-0.10979838774553678,-1.7206541299819946,0.45840150117874146,-1.6367406625083525,0.7829586962114834,-1.173698452419947,-0.5510110261619264,1.8404924418409592,-1.061144207138337,-0.9793686174570108,-0.6243239606105955,-0.9793140313830461,1.1276633274806458,-1.605632563661188,0.5453243768556222,-1.346644401550293,-0.7326291799545288,-0.7052812256877338,-2.2850522774233566,-2.099430332199032,0.3645423431067719,-0.050544722288610386,-0.8854271942468117,-0.027994542209489718,-1.4213413372039865,-0.8513890342838494,0.22168224342424359,1.5036206245422363,1.3857946395874023,-0.07129132210273934,-0.2743949796937402,-0.3991668253932098,1.445782337902857,0.26399238459750185,2.4549513450586335,-0.23096448852124257,-1.4950032334853043,0.45847086770810974,-0.7881376616665507,0.25092635930213153,1.2190618999124565,0.12303327769041061,-0.5833322405815125,-0.6956565261772015,0.10567066534047138,-0.33056464592933654,-0.5463322272823058,-0.5809849416406672,-0.6842894942552638,-1.8603836504433426,1.019791946828242,1.7734814629422853,0.6605662438126945,0.22321009635925293,2.0004096031188965,1.3601837656943083,-0.3945651569753451,-0.6452835732239995,1.0624755978260754,-2.1011549214222596,-0.9492019721533794,-0.0915251071587287,-1.298595821912712,-0.5738460870960425,-0.33171084746310353,-0.5299687831777788,-0.028212686993426477,-0.33389362692832947,0.24761995673179626,-0.37499046911154166,-0.953911830820957,0.42232202901045895,0.8154815022628584,-0.05598971951492275,-0.21039827178963627,1.0101760245710196,1.1274851223965845,-0.33174996703107024,1.1219960786693008,-0.0033523165620863438,-1.0508099794387817,-0.20160717034379724,0.3303279457912829,0.9892013331539525,-2.1664266915197934,0.23241151752794748,-1.0645010640536965,-1.4371910274407182,-0.21922944719560145,0.021275828390938438,-2.1145187531036083,-0.6222315817919891,-0.3297727345180638,0.17348696291446686,0.6055811643600464,0.3679601719756959,-0.269080323881094,0.04435105701758641,-0.8556937495264523,1.2277379002040625,0.3053100707390523,0.18665756322210358,0.26780708302826955,0.3100153657354398,-1.0427195850347253,-0.014853756874799728,0.5753482580184937,-1.6424462800776762,-2.209623480767998,0.7820113447247077,0.5353127209473502,-0.3275906587162971,0.3844518360854116,-0.8077357125849998,-1.3304139786216782,-0.8571883670476516,-0.5489647521987674,-0.6098475105934622,0.9222736955947006,-1.346665620803833,-1.5484453439712524,0.9663104261751779,-1.0627620105390487,1.2033221751348464,-1.7814424949966843,1.7605059134718777,-1.3100616949048243,-0.5270256190186506,0.8104188787549149,1.1414518610941755,-0.6193743281100748,1.3580642938613892,-0.14274147152900696,-0.41461116701222805,0.028198122224906825,0.17679992071877104,0.023186177123308848,0.537631638929195,-0.5325270715885376,-0.728709169985173,-0.38432552971477374,-0.5570625740505004,-0.916008730763794,-1.4750490354787957,-1.2920757946607264,0.6802360415458679,1.3000911474227905,-0.5115670665584328,0.5086125856761403,-1.0953062809412393,0.5354546638825104,0.11175589279654591,-1.010700363912197,-2.2773886808632082,0.5550036425973726,-0.7496448265392145,0.04094824903508834,1.1871520280838013,0.002917562611401081,-1.2871638786216186,-1.5012128643596636,-0.25198190236455487,0.6907445724883488,0.18269662992355656,0.2218158728780286,-0.6497481446041872,-1.0381733668483937,0.47331812793555106,1.5429693805437192,1.8731421315381023,-0.816962979008112,-1.1347410678863525,-1.252456545829773,-0.7249354912984628,0.26351669514985304,0.533698092381818,-0.012037982565856264,-0.7493193059201543,0.8401010332023128,-0.4595359562660984,0.37949867946868293,-1.0353326214520857,1.7083122900451573,0.4086510241031647,0.54386967420578,1.2186083705121822,1.4321992691235015,1.0145408350094283,0.38038114044236987,0.9037137249474274,-0.03742283546180629,-1.6199520660233828,1.7084098445243296,0.1849884365365939,-1.6901988322482102,-0.23378226110770148,-1.9924680994169663,0.22651730477809906,1.2327667474746704,0.18418724364516384,-0.9224691155964132,-0.12019673475749834,-0.4871878178597019,-1.1567548582778235,0.7605288798967905,-0.8659420292654527,-0.3650756504283983,1.4744881730650041,-2.116789159900109,-1.8887237310409546,-0.6735643148422241,0.07987153518328369,-0.019683628037204016,0.45073331401263195,-0.3835770187653546,0.39067792034240695,1.641722164533276,0.056084751703608354,-0.9724396000378227,-0.402665537386429,-0.19066055578639887,-0.9259464125976954,-0.35814263143980246,0.15947164595127106,-0.2565147280693054,-0.5237656166678527,0.28006583860211387,0.6177204833002501,-0.948747939316866,-1.0583245625547142,-0.38529127746788056,-0.4615433225238717,1.3328331983635255,0.1060698317232999,0.6130273270999084,-1.125119686126709,-0.847893238067627,1.5120802650654421,1.0073618044371484,-1.1469324314036071,2.0722191057894688,1.3624163320635898,0.15328676139530514,1.0768550825105807,-0.8016551370014454,-1.0971678914370853,1.007333170171582,0.5010571868746867,-0.4339466442939538,0.7681686282157898,-0.8913469314575195,-1.1422108991020299,9.834348148561878E-4,-2.3126030289847463,-0.9983047929821953,0.4753142258278359,1.1519094540529462,-1.3020838471551353,1.1237740339277436,0.3398804797640785,-1.2730338346376415,-0.9317904710769653,0.4382800757884979,0.2148766121082742,0.16113394451350224,-0.896355328822938,-0.773894355866713,1.1750602109241373,0.26559795528725544,-0.191899273589509,-2.166496101954764,0.6619497122535186,-0.26249232634433284,-0.5989268207481258,-0.4562461199030905,-1.4138672351837158,-0.6114832162857056,1.6661246175292388,1.3685632416758131,-1.5175066077175436,-0.46101477280789266,-1.2327873272989902,-0.5134701812917631,-0.15532154325812306,1.0691344570888885,-0.6987138082456766,-0.11335934213107812,0.6793596744537354,-1.198803186416626,0.06410299555114887,-0.8917332342803369,-1.6615940113416985,0.26947615720734774,0.14492985293204208,0.2048655224944622,1.1737138635171833,-1.8998853480872893,-1.4080574632324947,0.7120913803430113,-0.6828200483168151,-1.5229799451519612,-0.2225397676229477,-0.5795723795890808,-0.8976759976830173,-0.020595598204112702,-0.5301259571385517,0.024897555201476507,0.4386281463569868,-0.8721727757764245,1.6513003101236898,-1.4506099797980232,1.0065343599511236,0.8289839949590588,0.488415390253067,0.2692442536354065,0.5878933227847395,-1.0879332034327232,-0.11583712757199655,-0.2271006324858673,1.1183053517065447,0.4192728688550536,-1.0289965348651333,-1.4481308684080902,0.20591347533388216,-0.449669059706234,-0.20233472723930704,-0.022423027313956855,0.5190041661262512,-0.22565186023712158,-0.24763441941354042,-1.34176358623667,0.015575291066875132,0.5543327754879122,0.9362825838924894,-0.6847644787628846,0.7151563441221919,-0.956079254724634,-2.077099407520278,0.30356180248310144,-0.11912345141172409,0.24450767040252686,-0.5463068119449653,-0.38468776627466295,0.9438006349270602,1.4635252948588227,-0.45186584939949154,1.0205210709398564,-0.3988642052097058,-1.0917735584768027,-1.7533573137050051,-0.11831679446579728,-0.15832537874833208,0.40703467339702315,-0.8650304079055786,0.8369583487510681,0.5809508369123446,1.5909224740910821,-0.6357155958533081,0.34592062310670635,0.8922234782572054,-0.347958007067668,-0.16973986393059184,0.6232303611211725,-0.217239465096012,-0.8619558026041566,2.291780471801758,0.6319867372512817,0.4950352537956391,0.2921656294394216,0.5634591704461918,2.123643282806127,0.00801229279853005,-1.0713717337859714,-0.8053585096692226,1.1741043768905521,0.06875813703753855,-1.008345661148788,0.29615113045951286,-0.6551074322029631,-1.1550791263580322,0.8057556748390198,0.8538591028124733,-1.3715026053603834,0.54346520487838,-2.691517461650558,0.04663935709939276,-0.015350115956994466,0.27280121006509683,0.4578123167878541,0.13645139368199594,-1.1167549854616325,0.4665986895561218,-0.555027186870575,0.8008999969275039,-0.019892419907190106,-1.031214288619871,0.06494900843867,0.5529381903032636,-0.44825554158158276,0.7941626595639257,-0.7231172231300858,0.8821575371578607,-0.22455044357602258,-1.463151861464777,0.7305126677375582,-0.8620878458023071,0.31102386116981506,0.1687787926170589,0.1302549226088803,-0.6488606629712614,-0.06302246255687466,-0.08976644878901174,-0.3171315949605992,-0.8879668234679078,0.16397049276158945,0.841597770134754,-1.3448515408419344,-0.3523814082145691,-1.051019310951233,2.5722571277671236,0.29964959630743365,0.8634442998932172,-0.30581319269132423,-0.4227996951610723,-0.9605727755378086,0.07626700390481796,1.3852389938301108,-1.2775929633655647,1.4686637300621448,0.41314543394201486,-1.398914601551775,0.8734089732170105,1.1304917335510254,1.7457684410207523,-2.0175750741140694,-0.2489912407128186,0.19294817074261006,0.12189132152200999,0.42010497069441627,0.6597190778549873,0.37128095653287746,1.9532881800096067,0.6552270226154332,-0.1749948114156723,-1.9596630334854126,0.1844984740865448,0.9705462175092037,1.1932646224767616,-1.7144741212538583,0.8362818002056188,-0.26140863281808835,-0.5567784876024647,0.8193105823932351,-2.258695660862514,1.4853725843298282,0.9586345730841356,-0.7193311676235505,-0.33881935477256775,-0.49991658329963684,0.7495084226592083,0.21130355262390366,0.7499719014842214,0.6059162813765474,0.8930766283168998,-0.1462636014016597,0.2732660864047668,0.8511702674311911,-0.8605946029241728,0.9504889613512771,-1.1718173027038574,-0.6764126420021057,-1.0948256460690475,-1.582696615937793,-1.427511818467321,1.7124196393216635,1.2265888725067335,2.1348504382874487,0.5631602502887395,0.7761497099708713,-0.09381669815171288,-0.6973076208002442,0.12816279800527458,-2.3434266575742835,1.8112194538116455,-0.05775238573551178,-1.5083414107623363,-0.47498162385081927,-0.09614869920312875,-1.9925459238018286,0.10435247615183176,-0.4404448186736845,0.1491845184521161,-0.7320821493116668,-1.3389386757494555,-0.7852722795449744,0.282167911529541,0.7360693216323853,0.13747517480109137,-0.11059848389851683,2.0776696362188796,-0.1077217826070861,-0.890098436108087,0.4354776572763289,-1.779300174894013,-1.1234100164341423,-1.6012852312964467,0.4467804817941937,0.9735174506604733,0.9778470688056403,-0.1908918023109436,0.7352887988090515,0.1284865755786568,0.7770112088964622,1.1580256107843239,0.7462347562599915,-1.5040094502378132,0.13341348234824432,0.047821590225259634,-0.5339464175533659,-0.055565416583232136,0.375407656644765,1.6636333465576172,1.2680267095565796,1.4375064844834569,2.1434852280047725,-0.9435704092507013,0.13408184784163246,-2.46565622266438,-0.4451499468770952,-1.251140719971514,-1.1888601799764367,0.055806214464208956,0.5814991643774389,0.9549741791198748,0.11615838259912922,0.32914525270462036,-0.05890956521034241,0.9720901705407171,0.055289575805217324,-3.2694648378740387,-0.9217485030954488,0.321490261138999,0.8754134487178131,-0.3211597317186073,-2.3670112487300425,1.5532174818505755,-1.4757255719756759,-1.0091018676757812,0.46728944778442383,-0.6534035185170269,-0.05807078571622594,0.5960266344702221,-0.4130289044767689,0.8621099624623084,-0.5980769541511552,-0.2483849166606084,0.39263227302026654,1.6511748033441722,-0.5968932199299742,0.35240247749258885,-0.025878349061953087,0.6400282382965088,2.2587268352508545,-1.7299444722212085,0.324588868900462,0.002829612151288861,-0.31064810366706497,-1.4143976030317351,-1.4022021644735074,-0.1857191370058231,1.0770187617667892,-0.2761684537081188,-1.2482713060616526,-0.5761146545410156,-0.3641311824321747,0.3690010099894275,0.04015851412283223,0.7862824741050944,-0.38415280335538005,-0.0028707970211342636,-1.8335818317952823,0.45307927175845875,-1.4232756263220963,-1.126660962813477,-0.8014912274872832,1.2458022442137753,-2.0186621325857206,0.21017932891845703,-1.2012200355529785,1.0679574155387173,-1.4625445785977969,-0.10620411570834559,-0.9988755147626017,0.4822983088227243,0.12906237064390144,0.50116578612268,1.2987583188276737,-1.8317145672042516,1.16042763732557,1.0628498792648315,-0.2788750231266022,0.4359629540100109,-0.2969798843603453,0.37153730315487093,1.6417320328114018,1.182617611863825,-1.9436676705867042,-0.7352549548144093,-2.711513366500374,0.633898846308999,0.13268784467503245,0.8456387374494103,-0.4256449164201395,-0.7433180212974548,-1.0538392066955566,1.7314462961368167,0.1164386760266759,-0.0682038667003477,0.21002483198774824,1.308868140461072,-0.6004515097261689,-0.06404809278130179,-0.500793197563172,1.0445108782620416,1.7115701426654764,-0.5616827011108398,0.008177400566637516,2.0112632803336634,1.3672557907001432,-0.5265891161759625,-2.163886745233324,1.642537223658523,0.033316858731028486,-0.6653588025190195,-0.5904659869781379,-0.8728250965582193,0.2999505107533056,-1.0143064330047364,-0.37057343864302156,0.23031385242938995,-0.7623811364173889,-0.06435600978788782,1.4378687092480247,2.613947401971348,-1.3880451851709694,-0.3106523653900855,0.7154220754107335,-0.4595799210492189,0.28796758952717283,-0.5983159662885303,0.8310575220681741,-0.8274039030075073,0.6958337426185608,0.1476486957354114,0.8774461073590999,-0.8493282791037408,-0.04371424405253474,1.0235856348298733,-0.5555841328221623,-0.8799513169434983,0.3796242739417819,-0.8196419231570786,0.6706261326380936,-1.2733820748175926,-0.3194830870672,0.23734235763549805,-0.28258806467056274,-0.5018941080348155,-0.23447566790356475,0.13037645895527636,-0.32224050612592203,-2.0064934703576527,-2.9252298403536217,-0.3690548861097928,1.7065884117195154,1.342448957567034,0.23320750252967556,0.2162642925977707,0.04692770540714264,0.6060733196966914,0.34315683354595133,1.563809881800776,2.7765283638384712,0.6027604065865301,-1.9425201318795908,-1.348958329163209,-0.5263683017978845,0.7750914632600421,-0.4079003475818406,-1.0478756660394974,0.5812080694321848,-0.6636742353439331,-1.338925838470459,-0.7916938455375246,-0.40987535444378104,1.4063431052326443,-0.38013655868178003,0.10999335211414021,-0.18400486292032853,-0.14781286953708764,-2.2213472994678862,1.5682108885932138,1.3204294886989658,0.021861804649233818,0.3014827370643616,0.1692032547698918,0.043153029703189565,0.2879015416675874,-0.6318983738640676,0.2897147690327979,-1.179698257553182,-0.07156932985062792,-1.0534787557892078,0.6605338922783258,0.2769533792936756,0.5500365192504718,-0.7798804628383381,-0.640407919883728,-0.539873480796814,-0.7877218907317819,0.49643422136174653,0.4690592030821905,-1.2560082893062614,-0.3153297626258314,-3.0377846691481345,-1.1504772819745368,-0.4808947942910119,0.9561356182353642,0.17412526256276484,0.19875702261924744,-0.08146653324365616,0.7494962390003189,-0.852473087031697,-0.6874564668939401,-0.3671634994073819,-0.9955031223490177,-1.7059508952433213,0.011375199794190202,0.4548839785481456,-1.154103122595841,-0.9246902804198801,0.30316250529946964,1.5823535091596657,2.2453482151031494,-1.1281505823135376,0.9721754612036961,-0.49240572454927073,0.08493252275145698,-1.6206907016784544,0.14800988568313486,-1.2499908883484765,-0.54192409482312,0.8589418860412894,1.2056877386306097,-0.9891876515953222,-0.2649114727973938,-0.5296390056610107,0.03584670335622975,-1.177406890248444,0.7039809792593456,0.2988040365008019,0.4970499648008163,0.07761640373495766,0.7199918002343503,-0.7309252288019958,0.22130063855714344,-1.3233920798244083,-0.5058303814219279,-0.002349968311114915,-0.6923671960830688,0.5940841436386108,0.6568411704790909,0.6441259065342179,-0.6214532985389289,-0.6903122439076254,0.8271000330193639,-0.3501337328495933,-0.20368698375815084,0.6400614362407459,-0.6744842213831137,-1.9613504496165688,0.07380371540784836,0.3209100663661957,-0.32410048046697393,-1.1972659321014294,1.2017816237435435,2.3422370592467576,1.2618879618391576,0.2837259202900661,-0.3078004392608634,-1.7775659210521935,0.3925432782054503,-0.6558936622506475,0.4348922355202154,-0.37041016825372003,0.3933555781841278,0.32326456904411316,0.8306634333623949,-0.3095256632101797,-0.055575494374866564,-0.9803363266109366,0.4304595133489565,0.567226462587514,0.7210236371349067,-0.12526523488506824,2.0434710730764185,0.1391904922731509,-0.6220645308494568,1.94851815700531,-0.7239739797688269,1.6154115333132744,-2.306965845010789,-2.6011390491272657,0.15531342546379887,-0.557985480855183,1.587344905169027,-0.11134264094700311,-1.4740179196023453,0.5621912582230648,0.5439111205187,-0.5307765332934816,1.1170974969863892,-0.23416021466255188,0.6829033469366763,1.7741769722002954,-0.30948317723388125,-0.03944321501084557,-0.3347139327537966,2.04092876701088,-0.8307924901832687,0.23178390875419236,0.4634351150893954,-0.6087067852688864,0.691946268081665,-1.3432786464691162,-0.7396224559230541,2.1234582280415424,0.45426598942694985,-0.6641192260341203,-1.567057948864007,0.22618135493585875,0.28133468111439186,0.5011005972019752,-1.0026146553395359,-1.4318262923069027,-0.020190517529119944,0.411057011185751,0.2739597260951996,-1.1147027015686035,1.01740705082393,-0.7098445586998677,0.3859971360650928,-0.8526173271452244,-0.7097199018528944,0.5030376626311001,-0.5611314053901286,-0.9347403183438988,0.09813528008068294,0.14710404726191748,1.4317007064819336,-0.4342041313648224,-0.13802999081454365,0.011536501586658079,0.49391639998367837,-0.4580086308479658,-0.5348869158628806,-0.8254539660962739,-0.4294873183144189,-0.8132597457142793,-0.5399297693180024,-1.3234982541575184,0.5306797193416805,0.526135899433459,0.9086350798606873,0.01432296633720398,0.24773394648689556,0.12049101373076428,0.9587775563676195,-1.9431674947271844,0.6306047598150462,0.4627980896153227,1.6148855458829332,1.2939227741615371,0.6544981590160184,0.9929076405269334,-0.7601207494735718,0.15074016153812408,-0.5165928082568519,1.6523136191673229,1.3682719722018766,0.45588863210006625,0.788440421247397,0.48247702090461136,-0.557384747230917,1.135086901115393,1.6014380103306205,0.4857499726902451,-1.599116399180684,-0.15235612573211196,0.7200478911399841,-1.1038836240768433,0.46766444168601834,0.22341846763975853,-0.44102760015800996,-0.19361519051213258,-0.1457552816373088,0.9742029041878469,0.08840899259129917,0.17619184942601082,-0.4505319727305642,-1.092095744964311,-0.5680884122848511,-0.8818656206130981,-0.7111676395740496,0.13564699964171734,-0.901498356434647,-0.48611549529574927,1.0771392657897831,0.5716627457805876,-0.24015071771064062,-2.661553411391442,0.6498801325331504,-1.222488616962148,-1.2971692092749456,1.0313574157852858,1.6680662631988525,-0.28178727626800537,-0.14723986107083287,-0.48187943331457295,-0.939595948204614,-0.14218274698173228,0.27055207686877053,-1.117654494389905,-0.13135300233025637,0.1178534543296696,-0.7877332663070925,0.8815990128298976,-0.49581974744796753,1.6191223859786987,0.4077331979257338,0.017124363764850024,-1.2853416588374806,0.662744472147273,1.2482330921295524,-1.3015351895838458,-0.33862771645552037,-0.2805001860366499,-0.7288396761650445,0.5267570283936956,-0.5191634356047757,-0.46688768621726734,-0.20349012315273285,-1.1345494985580444,-0.046875559615324434,-0.9218903857840132,-2.2854172824324324,1.0312979610385207,0.37475896045126406,-0.3299315475914599,-2.9936953046495822,-0.6842411684566724,-0.30868768542158737,0.8485771153613869,-0.7014557123184204,-0.8672155141830444,-0.04549582079886103,1.1201664312590733,-0.24391840343223126,1.0496351372048704,0.14209250116304134,-0.05955299823973829,-0.7035953716325556,0.3817238472699725,-1.830849559524679,0.6377134934793268,-0.21779899684219747,1.0303391839869036,0.8466198444366455,1.4516243934631348,1.5538971327090763,0.37832089769835947,-2.297819511478783,1.2469864351117974,1.3947747787069755,0.09945942095398604,-0.15248839329331987,0.5359469309711632,-0.582509031349687,0.1956091519260876,-0.07842780649662018,-0.9802538752555847,-0.6793630162614583,0.27474695473392896,0.7084601875020806,1.574984633642521,0.6610227043804109,-0.5385283046149901,-1.420213802561272,-1.4952319563438983,0.21667256474085894,0.5238742953692704,-0.6386640660625946,-0.648689261437279,-0.6365517973899841,-0.3856998383998871,0.48435528055988664,-0.029890704505135833,0.9472257347251162,0.3224902718524999,-0.21066472537202277,0.14418417273905038,0.6941766916015489,-0.8269253515288013,0.06485669494610627,-0.6484440529835461,0.09415376931428909,-0.6137964129447937,0.6939149663863561,0.6724999314124739,0.48098062946905334,-0.3109537914044078,-1.3310546968852555,2.1174166849805425,0.03149578228186956,-0.49293482350210804,0.0720485610212967,1.5568155765661469,0.8599994864638333,-0.5495386969702954,0.2936592698097229,0.5045778155326843,0.5000235951940235,-0.451819697156216,0.5405245549613868,0.24992763613410224,0.14706830380048827,-0.5230203611621896,0.1487692365401136,0.6516223119754456,-0.7098898943953075,-0.8255462513172824,-0.4394877552986145,0.4269075095653534,-0.28303238288341576,-1.3773748282733123,0.7168320506437837,1.8343402381626368,1.1829459300540346,1.364247468733888,-0.39446080171025105,0.224201743666708,0.5222502996115961,-1.125274506397483,-0.45437468016095967,0.7242081123229565,-0.04979345574975014,-0.6544937491416931,2.3546362163343444,-1.8948746447462288,-1.5952962548936205,-1.2601454853874683,0.8648451801371669,0.04056955786314133,0.021378584866086556,0.21883245049086433,0.3193031790727977,-0.27030409594478166,0.750684916973114,0.2868390679359436,-0.21937739847097804,0.564847910699229,-0.8270281415111452,2.0704310072966727,0.5858679841119494,-0.16615852839915685,-0.6790754210152045,1.0477548048234369,-1.0959326737898976,-0.8807147179199064,0.3253197342432588,-2.3139926902895276,-0.036410775035619736,-0.7953688502311707,-1.1897478543175513,-0.5455075583764596,0.46589534939764676,0.32513116313447227,-1.1449149807213819,1.0076189447591055,-0.21720937916711255,1.3669677322105334,-0.9548484642318465,0.001951845663779922,1.0044001340866089,-0.1906852126121521,0.29729150012286076,-1.5126785281996336,0.4951959381509739,-1.3554189049728,0.4017925185568463,0.9270099964631264,-1.932874538810091,0.6638378987000226,-0.5603523785323035]},{"activation":"Sigmoid","size":2,"biases":[0.016042852240440088,0.03663586174932301],"weights":[0.17502930386780097,0.18332076543922318,0.7097270365610785,0.11868981846275391,-0.3094588610269388,0.9818618644929886,-0.9002436524148688,0.06389881771879105,0.3193975861336344,0.3355645237439624,0.3891024364060188,-0.44552608032685603,0.09772121767680504,0.10071320353132704,-0.5417281050341645,0.1994695480028224,-0.21692774266584108,-0.3239418284061722,-0.6454094986220364,-0.08310609128858835,-0.2790504256917843,-0.0897236366357568,-0.8170377494046387,-0.18942777855496454,-0.4046988016656039,-0.17282287421226952,-0.27767211925070073,0.35575421124336376,0.16569503761357607,-0.28547775290110483,0.46986293997658185,0.5706203842877023,-0.09104138262203902,0.21843044432041847,-0.01146184761611936,-1.5720512553309032,0.5095844580938632,0.17208778156229465,0.5358193920764032,0.22045594925536982,-0.2729365549602549,-0.3930782538731501,1.927049656851328,0.012812422586751181,-0.9846151082892608,-0.25561688892503526,-0.25789482166983796,0.272079782303372,-0.6018139653420378,0.05511680667624835,-0.0013858262621753597,1.5452206266648991,-0.09916601540537782,-0.4002662762766905,-0.2453679506096623,-0.23923031907838246,-0.2306012076994074,0.575577303532148,-1.277379095836942,1.2776952656599223,-1.484211570096799,0.12748761250068938,1.1368856141331525,0.03475373737326783,0.22164119075067013,0.0325182841651249,-0.24521571809651213,-1.84174314109657,-0.2498649516032603,-0.2229239949603974,0.3966126961546223,1.2035852413083106,0.2717584123587514,0.2266436583752259,-1.6646944551553988,0.015082672021737827,-0.05127465100997787,0.032302462601369986,-8.265043956128975E-4,-0.48290637371233125,-0.3422427749942862,0.8686533808476079,-0.010310452208274316,-0.743251432984644,0.31588290354598014,1.8927055415563314,-1.2992470272627485,-0.025724716589884216,0.9550077235612066,1.1587997738186457,0.49540589960294906,-0.8876655809469367,0.32890720721340116,-1.19584913114795,0.7534915745348774,-1.9811245601087348,0.8931885930832615,-0.4509202686833101,-2.736895338108427,1.1392118690016528,0.9286043379326012,-0.10957947009817919,0.027748472426531945,-0.36155058745667323,-1.3199683345884559,-2.1418084917089164,-0.9146738912774595,0.47845227304017307,-0.14413076506314776,-0.02224745303681654,-0.3404280843205116,1.0576114860787404,-0.2434181141811361,-0.4472213012638963,0.47851726750909757,1.3028984582637337,-0.9679837564685498,1.0585278278872308,0.5568519511193487,0.5988768833254335,0.24902636822083798,0.7547609374083786,1.486722108610206,-0.7425142016447134,0.4190811855180346,-0.37118052102217036,-0.7435427882153355,0.4663340405684625,0.7014505663358289,1.2025244340743644,0.47928953959333037,0.24247915283808383,1.3436171295760926,-0.7333073362358447,0.47994113500840374,-0.5557758790170004,-1.374700789895535,-1.0125439652480264,-1.2561081100312135,-0.41089777308999326,0.8334469678751844,-0.48757964577147367,-0.06534504920649258,-0.6019543842528989,-0.6660778568072936,0.07988039855566115,-0.48763585282374594,1.216441300737194,-0.47515670354195866,-0.5990448348891854,2.7821816135703386,1.4576379235699006,-0.8304109406275288,0.3779781674932185,0.2996692055947783,-0.44679317753442094,0.7348082656611605,0.012419738821259492,0.522630101540026,-0.5865233901920164]}]}