{"inputSize":26,"layers":[{"activation":"Sigmoid","size":60,"biases":[-1.2578764337941781,0.223613899967607,-1.4461997533120092,-0.5787037851681753,-1.1405619097523223,-0.5675477968847809,-1.1748819426231605,-1.7958294278835738,-0.6358013165782644,-0.615479895921796,-1.0754508819104311,-0.8071987054806198,-1.1647401422658326,-2.314660126295987,-0.6956849955892527,-0.9456890612699363,-1.095082222568867,-0.0670462572898534,-0.9415619119936172,-1.3296446083813227,-0.3101951404888349,0.5131529957614839,-1.803165100947541,0.7128545901987617,0.279737629221307,-0.5925195498217711,-2.7744930726264223,0.3954973932752802,2.182058489539099,-1.024007047919455,-0.42285972477801675,-0.5263278652463705,-0.11365380063490871,0.3038683535332244,-1.9886534833598328,0.18619547168626874,-1.5041022837788918,-0.8196432781483457,-1.438955156231567,-0.28104147732206375,2.115082992417148,-0.7817679428190206,-1.045473250225806,-0.4421805212190825,-0.9880288261375072,-0.4513788885010976,1.0106581455240629,-0.22735654750355874,-1.5621848568865642,-0.2902831390400376,-0.9144321066102116,-0.46528737091242306,-0.9266749515200265,-1.6508285080850156,0.6748839554733845,-0.6013967944575193,-0.8804879364223345,-1.8167937415856528,1.2410655018417442,-1.4012975443971298],"weights":[-0.5825829461380899,0.20709823781569295,0.13957610782143837,1.3877485990524292,-1.2394121885299683,-1.1348685026168823,0.25075066089630127,-0.3242511451244354,-0.6181818842887878,0.8259903788566589,-0.6173704266548157,-0.7362130880355835,-0.4825647473335266,0.2634483873844147,0.45862287282943726,2.8979601860046387,-0.5754502415657043,0.973747730255127,-2.6474952697753906,-0.31855664515656407,-1.9816813320357611,0.42975964985461595,-0.17361646654487306,-1.8724227440385233,-0.45063566916691716,0.8981536599559444,-0.7499979487402347,-0.4145842611056522,-1.2987910034075723,-1.343993067741394,2.2783267498016357,0.1942467838525772,-0.28348830342292786,1.1191062927246094,1.8174093961715698,2.510577917098999,-0.1821400374174118,-0.9195816516876221,-0.3688174784183502,1.1137748956680298,-0.47829005122184753,-0.030361101031303406,-0.48718753457069397,0.40733498334884644,0.9837499260902405,-0.6268401060627836,-1.9445093172274144,-0.5168270833292431,1.0008235830313146,-0.0845605557617987,-1.4756911998769568,-0.5494179834036657,0.6284522238066119,-0.33463703103469844,-0.9299885342889938,0.9550721049308777,1.4716160297393799,0.8548539876937866,1.3122416734695435,0.7209177017211914,-0.005518513731658459,0.6473554372787476,0.8767367005348206,-0.04259166494011879,0.07052259892225266,1.3347923755645752,-1.9415994882583618,-0.2509022653102875,0.9816974401473999,1.1617511510849,1.9269516468048096,-0.12052699731711973,0.3422582699586784,-1.6930661268024843,0.48774731296621593,-1.4867288945471728,-0.040232432231217356,-0.29996746233473653,0.7225924306568656,-0.17682799436860838,0.03446557558835917,-1.060825228691101,0.010319088585674763,0.5057771801948547,-0.5320553779602051,-1.2982654571533203,1.5885523557662964,0.26919254660606384,1.5302342176437378,0.5682543516159058,-0.5717113018035889,-0.6170566082000732,0.6778856515884399,-1.1526964902877808,1.4933807849884033,-1.006653070449829,-0.6061685085296631,0.551003864919868,-2.2562008312996915,-1.6675186422096657,0.7537925629782873,0.0649294577953932,-0.025322651225094136,-1.3700675974011678,0.3572473171757696,0.2549203220385577,0.8843627561504498,-0.5784714221954346,1.067014217376709,0.20219816267490387,1.4908808469772339,-2.2105205059051514,-0.918158769607544,1.5307649374008179,-0.9810302257537842,0.6633328795433044,1.1828980445861816,-0.7095479369163513,0.36351582407951355,0.17414316534996033,-0.27394211292266846,-0.08078201115131378,0.22012881934642792,-0.9865769340861323,-1.5050790328792103,-1.3061230741027572,0.8883794099263469,1.1025494744036333,-0.26828116828044624,-1.332294941638567,0.3065997307349105,-0.1509721767966521,0.8274605277857344,-0.5869531631469727,-0.24955224990844727,0.13233445584774017,0.7829856276512146,-1.0740606784820557,0.9250956177711487,0.43694567680358887,0.3620161712169647,-1.259949803352356,-0.12432213872671127,-0.2961404323577881,0.5859116911888123,-0.3666110634803772,-1.0177325010299683,0.357725590467453,-0.961253821849823,-0.0951110491214424,-1.428740908658428,0.15793171252408644,-1.8855699744902432,0.6082042024792419,0.23205321427938305,-1.1170836792843726,-0.9002086751239727,0.6743795200095113,-1.467524165818419,1.274909496307373,0.9301823973655701,-0.5225949287414551,-1.4604783058166504,2.1999731063842773,0.9658042192459106,0.27819833159446716,0.05548320338129997,-1.636727213859558,-1.2941091060638428,1.152193307876587,0.5351839065551758,-0.036483246833086014,1.5767452716827393,-1.397132396697998,-2.057189464569092,-1.1074598212288542,1.0953711026481192,-0.6105491136509272,-0.9851403638652115,-1.0732867023184887,-0.014995049462775816,-0.406402340611251,-4.444165557570504,-2.411784968851375,-0.022330559652857997,-0.8581783771514893,-0.5984987616539001,-0.5241998434066772,0.3777204751968384,-1.9389442205429077,0.3544563949108124,-0.23254437744617462,-0.3290462791919708,-0.03996727615594864,-0.19076693058013916,0.5879811644554138,-0.44836923480033875,0.057718001306056976,-1.03072190284729,1.461207389831543,0.72967529296875,0.2632812737288044,1.4530759490731944,1.1887315862505925,2.0447296033621036,0.6750205727108357,-1.3751085335557052,-0.21912015897114273,-1.8919618275057641,1.1932953965400437,-1.0183079997094835,1.4116774797439575,-0.356622576713562,-0.5161634683609009,-0.47859373688697815,0.7223021984100342,-2.18105149269104,0.8203837275505066,1.04600191116333,-1.2583884000778198,-1.0374668836593628,-0.4911758005619049,-0.6363704204559326,-0.14754225313663483,0.5178830623626709,0.43456941843032837,-0.7194924354553223,-1.3791536846965537,0.844663918130085,1.3932779669318507,-1.9419959520494778,-0.5920732083618072,-0.5217956159935951,-0.13380722099170014,-1.8331832938646906,-1.4918049930216957,-0.2639068668295865,0.1578492522239685,0.014521200209856033,1.2928053140640259,0.6286105513572693,-0.7569139003753662,1.2373164892196655,0.08804064989089966,0.16650556027889252,-0.8624743819236755,0.38101962208747864,-0.7425180673599243,1.824182391166687,-0.7638890743255615,0.4492456912994385,-0.2636273503303528,1.3525563478469849,1.3229246042874176,-0.9873897726505748,-0.8180196513503629,0.47111911457929956,-1.9729308903290819,-0.45772422993614853,0.11452293549082851,0.17611195858857767,-1.0626888914364523,-0.42780232369048876,1.3234813213348389,0.20281071960926056,1.943835735321045,0.7352775931358337,-1.3570446968078613,-0.056972894817590714,-1.3031299114227295,-0.8581281304359436,0.3123522996902466,-0.1288408786058426,1.570068359375,0.33646124601364136,-0.37977367639541626,-0.12251085788011551,-0.011530282907187939,-0.4497535824775696,-1.234366837819583,0.6225698810485095,0.07705170570453175,0.129304661511836,0.2589515734266544,-0.2394536761655725,-1.0485580799346659,0.6110358391539349,-1.7182737953089735,0.49716261755749996,0.1731819063425064,1.6117982864379883,1.8922159671783447,-0.25262972712516785,1.1297575235366821,0.96650230884552,0.08382660150527954,-0.9625666737556458,0.7165243625640869,0.8836435675621033,0.8945028185844421,0.490526407957077,0.8583884239196777,-0.06990285217761993,-1.3282440900802612,0.0912763848900795,0.9707514117053381,-2.69812776745205,-0.19911834248491891,0.6063975536522671,-1.6122342179589584,1.6848934150387722,-0.8875252622630208,1.206413094045294,-0.6199322336782315,0.15327575693743184,-0.3145224452018738,1.3123592138290405,1.7217930555343628,-2.2508184909820557,-0.5934845209121704,-0.1660396307706833,0.019514815881848335,0.6145298480987549,0.33938083052635193,0.8479579091072083,1.9373643398284912,-0.4287797212600708,0.9271283149719238,-0.5078834295272827,-1.8820832967758179,1.256862998008728,1.0573123199889365,-0.3495624066556244,-0.634716779583812,1.764964303481608,-1.3507705647959225,-1.1965954069242424,-1.6683537539991418,-0.11715595802891414,-0.5748466290430058,0.44868038123511794,-0.49614983797073364,2.4079418182373047,0.3638584017753601,-0.07320050150156021,0.4218907058238983,-1.2924493551254272,0.3878268003463745,2.218836784362793,-1.4043132066726685,-0.7405842542648315,-1.5808789730072021,1.000115156173706,0.3996501564979553,-1.9780181646347046,-0.7850244045257568,-0.8446508049964905,0.9628129508870669,0.43760077855675034,-1.7284005377717226,-0.48068146449539584,1.8398362931034051,-0.08973154594176733,-1.3312008374955004,0.735066075991664,-0.343211214105345,0.2945293046298272,-0.12156495451927185,-0.9964082837104797,2.1169207096099854,1.1638901233673096,1.8935552835464478,1.617048978805542,0.8132321834564209,0.008496279828250408,-0.7130004167556763,-1.2780916690826416,1.2618522644042969,-0.2258841097354889,-0.02654659003019333,-1.4124650955200195,-1.3276276588439941,-0.294245183467865,0.4313840632121212,0.32473265357681946,1.0405105230229614,0.037643003209942086,-0.16807267638852882,-1.566867933150671,-1.319761353673227,0.7910035850050506,-1.0864897903114874,0.922811796822036,1.8718023300170898,0.21517039835453033,0.07709448784589767,-0.0143895223736763,0.22715047001838684,-0.39669373631477356,1.0301792621612549,0.24481888115406036,0.6742488145828247,-0.6071832180023193,-1.206467628479004,-2.190138101577759,0.016526656225323677,-1.1563421487808228,-1.3190873861312866,0.9798117280006409,-0.07842793643991444,0.046602099502074217,0.006900547536410193,-0.1937121263206436,0.05374067321041815,-1.5382078955156935,-1.3545357435619914,-0.7866114683293268,-0.9074012540888082,0.7894559689291503,-0.3390272557735443,1.0514062643051147,-0.034598588943481445,0.8283183574676514,-0.0802532210946083,0.31236812472343445,0.7214603424072266,-0.538740873336792,-0.8745557069778442,1.022152066230774,0.2917594611644745,0.2405921071767807,-1.09254789352417,-0.19785849750041962,1.271484136581421,1.2539284229278564,-1.0160673073891398,-2.025256920899111,0.9011741727883938,-0.31486776039307346,-2.0224485498121876,-1.2913005608857564,-0.6857773683678648,-0.8741922625232994,-0.5699233386528159,0.3948646061783057,0.4917418658733368,0.4722192883491516,-2.124331474304199,0.8957825899124146,0.03070426918566227,-0.4748271405696869,-0.2839584946632385,0.5877223610877991,0.08074044436216354,-1.0312695503234863,-0.3337208032608032,-1.2590534687042236,1.1260929107666016,0.6867575645446777,-0.7939358949661255,-0.6733551025390625,1.5330007600626907,-0.731842557967028,-0.8105606226577423,-0.31650163120017366,-0.00468929673817711,-1.467284682453726,-0.6392310185807781,-0.821324938695592,-1.021032750054065,-0.160601922527147,0.7137860655784607,0.9520084857940674,0.8610998392105103,0.1907486915588379,-1.3613032102584839,-0.5740378499031067,1.551147699356079,-0.5707843899726868,-1.3446648120880127,1.0654593706130981,-1.3836915493011475,0.3948958218097687,-0.09224370121955872,0.8517533540725708,-1.474622368812561,0.23676367104053497,1.3923851916052854,0.658873847123717,0.006340306057686669,0.9266341753848332,-0.8483105245675233,-0.6980548699559426,0.4553695931881378,-1.5250123716057487,-0.7804468878637445,-0.7515376790447789,0.04276581481099129,0.3423605263233185,0.6234157681465149,-0.2211722880601883,-1.5701698064804077,0.9692624807357788,-0.8990987539291382,-0.8093698620796204,0.7429544925689697,-0.4246269166469574,1.5775574445724487,0.27470651268959045,-1.115166187286377,-0.3530643880367279,-1.1853711605072021,-0.1178441196680069,-1.2976859782201204,-0.5698269711227574,-0.1648885101086912,2.079589067156585,-0.8657066070520867,2.8152336298748053,-1.34103795802217,0.0688898798645253,0.35903494525128643,0.3148844413185902,-1.3567901849746704,1.3981995582580566,0.7968486547470093,0.5445380210876465,-2.088383674621582,-0.909608006477356,1.8946709632873535,-1.0863561630249023,-0.7789528965950012,0.9188527464866638,-1.0426864624023438,0.38543885946273804,1.2386140823364258,0.10183297842741013,-0.08222109079360962,1.8499172925949097,-0.7222950579394353,-1.2690646043154719,-1.0232054434718678,0.48603113024320055,-0.0030555617020334223,0.10118776535255637,-2.078270315702706,0.12121403306559796,-0.48734987076412456,-0.051630655651215086,0.8809602856636047,-0.3388710618019104,-0.015617006458342075,0.28337210416793823,-1.1938351392745972,-1.2220908403396606,-0.22389492392539978,0.2656479775905609,-1.2318003177642822,1.5177373886108398,1.1934075355529785,-1.290582299232483,-2.3358545303344727,-0.13999149203300476,-0.41571786999702454,1.5429103374481201,-0.07040673745083886,0.37708751071761526,-0.5213996524587211,0.2976532661079355,1.4865710972504909,-1.78507284651912,0.11570428151549995,0.6846944197080611,1.7727755790106245,0.22888404248271305,-0.6996320486068726,-0.32859620451927185,-0.6291548013687134,1.1824965476989746,-1.364625334739685,-0.26354435086250305,0.6223017573356628,0.4792320728302002,-0.02677844651043415,-1.0765177011489868,1.0910321474075317,1.3448766469955444,-0.052115388214588165,0.9538146257400513,-0.33373114466667175,-0.09884927421808243,2.144721434549657,-0.7490966067902516,-1.0738563475086986,1.443642444600189,-0.42038301898089697,-1.4735583213702363,-0.8917570969082328,-0.7419045542139838,-0.6959513905634078,0.2662507445239962,-0.2881162464618683,-1.6114450693130493,1.8014984130859375,0.10899960994720459,-0.5019567012786865,1.9485255479812622,1.5861274003982544,0.11202095448970795,-1.2635753154754639,0.10859152674674988,0.06739229708909988,0.020903708413243294,-0.3883366882801056,1.670204997062683,-0.811771035194397,0.5512595176696777,1.2310303218965186,-1.7115424581495866,-0.8586937679874139,-1.4859398455317114,-0.5374968383400023,-0.12082314157474128,-1.4510092496996214,0.2546336161411232,-0.38662871819316014,0.5825072154488755,-0.5569732189178467,-0.1722474843263626,0.1510997861623764,-1.6771941184997559,-0.6173383593559265,-0.14634180068969727,-0.4529651999473572,-2.149524211883545,-0.8802485466003418,-0.7869585156440735,-0.4817575514316559,-1.7269177436828613,-0.7419703602790833,-0.7041071653366089,-0.16669553518295288,-0.37576815485954285,-0.2158616889724831,0.4512757115381348,0.5307997317356535,-0.9840063849345501,-1.8990109995678757,-0.2775989753280581,-2.384112874278056,1.546806080069702,-0.9119816144833823,2.1352037779167192,0.17902640998363495,0.3841736614704132,-0.4903051555156708,1.1904563903808594,-0.8060285449028015,0.7369988560676575,-1.2144367694854736,-2.3050694465637207,0.4910484850406647,0.5005632042884827,0.3205142319202423,-0.04846502095460892,-1.2134817838668823,0.9077831506729126,0.7374911308288574,1.1477962732315063,0.11287598020662533,-0.6992034204938755,-2.777943860509812,-1.0365884275359953,-1.058759239025801,-2.313654812562923,0.41860073694339395,-0.6389400662455504,0.20291429478314738,0.6919139000346557,1.081508994102478,1.3336549997329712,0.7279595732688904,-1.4726336002349854,1.0657438039779663,-1.80668306350708,-0.4381501376628876,-0.11958911269903183,-1.0561460256576538,0.5425739884376526,-1.0522775650024414,0.00340848951600492,1.612235188484192,1.8476402759552002,-0.5643503069877625,1.2742631435394287,-2.294240732779115,1.1128839794217968,0.7182422248364616,-0.9067516713035614,-0.005558733681562337,0.24369889008800383,-0.1998225320680567,0.3171482068144437,0.19933187222692628,0.7828847748669286,-0.28479352593421936,-0.43853551149368286,0.5040795803070068,-0.9161798357963562,-0.2209320068359375,-0.08280692994594574,-2.003124952316284,0.6177109479904175,-0.8305090069770813,-1.5911742448806763,-0.40160638093948364,0.7020524144172668,-1.591072916984558,1.199405312538147,-0.7053782343864441,0.6713804006576538,0.6681541717439965,1.573702553500879,0.4439446134913291,-1.1646201126043072,0.053415045567496044,-1.3751796583853604,-0.5709376436771663,-0.22979563539113262,-0.19149881427798668,0.5110793137319105,-0.2650357186794281,1.611742615699768,-0.06857679784297943,-1.5158458948135376,0.8236169219017029,-1.1631755828857422,0.8244511485099792,-0.6521912813186646,-0.43876469135284424,1.712774634361267,-0.8179868459701538,-0.32799234986305237,0.09282691031694412,-0.430168479681015,1.8103562593460083,0.37882915139198303,-1.0780246077774822,1.5204741718644088,0.43331508744502006,1.4668695172472368,0.8665513850194808,2.318753779486403,-1.1434468240441462,0.372963240277691,-1.0642153547999358,-0.1280749778350516,1.51309072971344,0.805228054523468,-0.0918743684887886,-0.30262094736099243,3.1283974647521973,-0.4966264069080353,-0.5091931819915771,-0.0862722173333168,-0.228488951921463,-0.12833255529403687,2.145242929458618,1.31938636302948,0.6916075944900513,-0.4207096993923187,-0.8245300650596619,0.40338870882987976,-1.3165759535785875,-0.742430699479515,1.1164142862060487,1.6316679027636114,0.24662719454992652,0.08083456273617312,-1.325079552366624,-1.2326655593360767,-0.8956979013844899,0.8689529497036965,0.7214781641960144,0.4091487526893616,-1.382745385169983,-0.35555893182754517,1.1706950664520264,-0.23339883983135223,-1.0635881423950195,-0.2716478407382965,-0.045199841260910034,1.0532941818237305,1.4835153818130493,0.4128323793411255,-1.986251711845398,0.1496199071407318,-1.84559166431427,-1.5034693479537964,-0.08226740232543413,-0.10282565296039486,-0.660526292195545,0.10649591050718393,0.3070119157605227,-1.4469654245335974,-0.38340777517710206,-0.1325564706078686,-1.7783236968238838,0.4500420356291871,-0.5111513137817383,1.27866530418396,0.3706844747066498,-0.3568909168243408,0.24150095880031586,-0.40223950147628784,0.4388819932937622,0.6611219644546509,-0.7920921444892883,0.2757534086704254,-0.6964091062545776,0.04065046086907387,-0.25287139415740967,-0.25338444113731384,-0.8470620512962341,0.024960722774267197,-0.46439029280818356,-0.015398172250462933,0.6750047627512166,-0.40790917352501166,-0.2933999446955862,-1.8414302104567786,0.9709984120320675,0.8576393100836877,-0.6930202951650044,1.7467071078314653,0.3685222566127777,-1.0607093572616577,0.6924403309822083,1.5312787294387817,-0.7787764668464661,0.020911099389195442,0.051520392298698425,1.054782748222351,-1.147470474243164,-0.43507125973701477,0.6851747632026672,0.6719092726707458,-1.7019739151000977,-0.41866254806518555,-1.409880518913269,0.006909860763698816,2.5780846633013237,-0.9896578523704588,-1.1206651813219286,-2.0962220747929488,-2.8204888481329635,-1.1740178342756775,-1.9580564003685224,0.10520961372975372,-0.5722950430735785,-0.16879222786444276,0.7044697999954224,-0.025416238233447075,-0.6396317481994629,-1.4287621974945068,-1.1121538877487183,0.23819555342197418,0.8995215892791748,0.3469497859477997,-0.5027031302452087,0.1815805584192276,-0.3628816604614258,0.5244600772857666,-0.8775785565376282,1.0326343774795532,-0.5011240243911743,0.35585251450538635,0.6622635689661308,-0.6015021115171114,-2.5262587787724713,0.5337779617590234,-0.04349624254939984,-0.9774025696793877,-1.6380646118533366,2.216866344907885,-1.1742263743777532,0.8022788172465645,0.5150241851806641,-1.5860488414764404,-0.31672361493110657,0.7775501608848572,0.420575886964798,0.14934119582176208,1.7500286102294922,-0.37414419651031494,-0.19853441417217255,1.0331597328186035,0.8455494046211243,-1.3392912149429321,-0.6892362833023071,-2.2316856384277344,0.36470827460289,1.3972346782684326,-1.8847784279990263,-0.7480005220347624,-1.7996990561042638,-1.098554010630877,-0.2311618598013553,-2.3598680158903607,-0.41185423924489123,0.6277122684872968,-0.18571471344513105,-0.8482998899881694,0.5476672053337097,0.020678674802184105,-1.074415683746338,-1.3549044132232666,-0.25558656454086304,-1.2256691455841064,1.9243721961975098,-1.0299590826034546,1.29093599319458,1.0286785364151,-1.6328706741333008,2.0915331840515137,0.023252170532941818,0.21710927784442902,-1.545088768005371,-0.800117015838623,0.6869275091898264,-1.1484448204590785,-1.1659662477976118,-0.3480231839467278,-0.46004448300236417,-2.2573037307535238,-0.28551898172570694,-1.8254834421211767,0.49288358380401515,-1.4053424834932444,-0.5070023536682129,0.5517593026161194,-0.5579431056976318,-1.9659925699234009,-1.5054500102996826,0.26945391297340393,1.3846290111541748,-0.5640756487846375,0.38678357005119324,-0.33277231454849243,-0.5730277895927429,-0.06483257561922073,0.36954328417778015,-0.020424803718924522,-0.7986872792243958,1.0851446390151978,-0.5891726238098708,-0.013350036151892048,-1.03746086364441,0.7953888487316833,0.5742480347431516,-1.5903629590108144,0.9901668269028409,-1.1746842597284122,-1.1805447538213114,-1.4907073463618332,-0.7472691535949707,0.1475394368171692,-0.08210042864084244,0.9308784604072571,0.8428105711936951,0.6830764412879944,-0.6460971236228943,0.45257940888404846,0.08781221508979797,-0.17964546382427216,-0.6457358598709106,-1.4744250774383545,-1.2871218919754028,0.8762152791023254,0.7238688468933105,1.750967025756836,-1.4252769913632226,1.7349163852088618,0.3893670291525262,0.6071863559013148,-0.7474352752529569,-0.5324835481729158,-0.19427953945296625,-0.8169249747128489,-0.2893159621522127,-0.9944324097557086,-0.08195947855710983,-0.560503363609314,-1.441590428352356,-0.3401516377925873,0.44431185722351074,2.238974094390869,-0.04901927709579468,0.8658952713012695,-1.7630466222763062,-1.4385026693344116,-0.86444091796875,1.577293038368225,2.081439733505249,0.7281976342201233,1.9359822273254395,-1.2264418601989746,-0.2365928367488553,0.7113379914505409,0.8061098439743928,-1.5342841192655245,1.28846014051969,0.2901871056864647,-1.110539521834651,-0.32459940036684726,-1.8322308189994856,-1.9096005874092261,-0.9758419990539551,0.7283191084861755,0.46593520045280457,-0.05526069551706314,2.215193748474121,-1.2589844465255737,0.05879204720258713,-1.0313358306884766,0.9182509183883667,1.132369041442871,-0.49156004190444946,-0.4350114166736603,0.1658458113670349,0.5101401209831238,-1.1928589344024658,-1.5371602773666382,0.13930707737295403,0.5603699545544756,-1.894897965370725,0.336732416623596,0.3112983249987318,0.2945424804002993,0.8014114540658159,-0.16195132966057074,-2.2883750607237077,-0.6843813439019125,1.075256109237671,0.003576478688046336,-1.2345679998397827,-0.7388845682144165,-0.5425647497177124,-0.9313716292381287,1.4657005071640015,0.03308814391493797,-1.9098002910614014,0.865024745464325,-1.1164014339447021,-0.7562122344970703,0.2189761996269226,0.34454137086868286,3.1343281269073486,-0.41026970744132996,-0.9598916591782851,0.3638753486278828,0.7731706196216896,0.05472182064613136,-2.4669517882106042,-1.597040879430581,-0.5040879319462339,-1.5614066701487075,2.0024148635222727,1.3396326817455173,-1.8311855792999268,-0.603584885597229,1.1843235492706299,-0.07576268166303635,-0.6427376866340637,-1.0939998626708984,-1.173404335975647,-1.7244384288787842,-0.7642266154289246,1.0512661933898926,-1.6609498262405396,-0.7873330116271973,0.9466881155967712,0.6815128326416016,-0.4721301794052124,-0.8625712990760803,-1.529368690287309,-2.2214769055394123,-0.44791401314259316,0.8717751794451257,-1.4501648806262666,-0.7941940907371572,0.4794941920257651,-0.17248938888145932,0.4221616521618323,0.08098045040378148,0.19325858354568481,-1.092759132385254,-0.3649306297302246,-1.5398826599121094,0.13777455687522888,-0.686083972454071,2.0664188861846924,-0.549466073513031,-0.8257134556770325,0.13508930802345276,0.7656679749488831,-1.4445428848266602,0.25795745849609375,0.6215454936027527,1.2364999055862427,-1.4435993432998657,-0.5859995284816998,-1.1406855427069693,0.06953028150666363,-0.8668740447632894,0.7538251445563301,-1.4719834947910269,-1.419102432575517,1.7022423953857588,-0.6365435680336117,-0.6531186359353691,0.9404589533805847,1.1973515748977661,-0.09246095269918442,-2.419213056564331,-0.3776112496852875,-0.4424242079257965,-0.645593523979187,-0.8920344114303589,0.44243431091308594,-0.17922836542129517,1.2156907320022583,0.3871367275714874,-0.5702618956565857,1.193851113319397,-0.35362184047698975,-1.268113613128662,-1.9067458740747774,-0.5454457995824954,0.08381600282475596,-0.9402090237605409,-1.3233417423716194,0.13163908821383438,-1.6040084469895102,-1.2748284801783312,0.3642548538125535,-1.7855380201883564,1.5941437482833862,-0.014887742698192596,0.9059916138648987,1.0596506595611572,-1.0261259078979492,-0.015785332769155502,-1.877701759338379,-0.7559795379638672,0.1739816516637802,0.007487165275961161,0.5160122513771057,-0.23505742847919464,0.6741088628768921,-0.42203158140182495,1.2998716831207275,-1.2900093793869019,0.6443293614509522,1.0013509638241391,-0.10526473320919892,0.22568751033728138,-1.2870730389485507,-0.4248991897612312,0.3876861046671857,-1.2484150657042297,-0.6588230055529655,-2.044541401333643,0.9203149080276489,0.5201212763786316,-0.8420326113700867,0.6933890581130981,2.050572395324707,0.13597968220710754,1.180029034614563,2.3291423320770264,1.8194512128829956,0.04000847786664963,0.5561355352401733,-1.827785611152649,-0.46441221237182617,0.7832117080688477,0.264894962310791,0.07799410074949265,0.5984990370054118,2.0071726326332313,-2.4962475245555185,0.27886832140660023,0.46733932643056936,-0.7068170287481471,-0.057200136251565496,-0.6783072463247817,-1.0547841225489183,-0.8752197249438999,0.5268174409866333,0.32806625962257385,0.8649206161499023,0.028744813054800034,1.3180032968521118,-0.25012853741645813,0.5699325799942017,-0.6896998882293701,-0.5374239683151245,-1.364085078239441,-1.1603446006774902,-0.6381734013557434,0.9074391722679138,-0.08131195604801178,0.3186063766479492,-1.1483898162841797,1.2076327685404227,-1.856516464336215,-0.2661484528891244,-0.848007382368014,-1.57362178716309,-0.638623829657821,0.01855945860066294,0.2964759471252637,0.19108551966285495,-2.5187885883717294,0.8118148446083069,0.6116214394569397,-0.03146163746714592,1.273303747177124,-0.30566757917404175,1.8724007606506348,-1.6262781620025635,-0.1649913638830185,0.20748230814933777,-1.7866026163101196,0.9950724840164185,-1.1618837118148804,0.08078277856111526,1.4893873929977417,-0.5294495820999146,1.2766964435577393,2.092263342354032,0.8740225456629,-1.7819570770909334,1.4590253820951344,-0.21732478665099175,-0.9648676557358993,-1.1679776711615883,-0.836682671158221,-0.6179330707921479,0.334486277678803,1.441545009613037,0.9923421144485474,-0.3167509138584137,0.7255793213844299,-0.4507780969142914,1.6386387348175049,-0.05230511352419853,1.4153257608413696,-0.8586322069168091,-1.376554012298584,-1.5511969327926636,-1.8704802989959717,2.2251601219177246,-0.6203891038894653,-1.3412538766860962,-1.0460103750228882,0.5311282904587972,0.9561558602122396,-0.2907041732234277,0.9115957083962353,-1.3093266918481763,1.5199900669940767,-0.7638185170286589,-0.30928145312253996,0.7267544135044941,0.6367981771369489,-1.1975376605987549,-0.1806652694940567,0.46752962470054626,1.6954995393753052,-0.006021619774401188,-1.3021329641342163,-0.9381070137023926,1.43739652633667,-0.9214456677436829,2.047361135482788,-1.615639090538025,-0.9476660490036011,2.2335498332977295,1.2304105758666992,-1.0599714517593384,-0.44007718563079834,-0.9157638385916509,0.8029847959992501,-1.3315517988581684,-1.687261186049591,-0.6640701213443045,-0.2588044547411245,0.008874360871680392,-0.674100894278662,-0.25429493612262205,-0.4806684445435534,-1.3149811029434204,0.10832995921373367,0.48888352513313293,-0.8971918821334839,-1.7052505016326904,0.5486853718757629,-0.9736979603767395,0.4564495086669922,-1.623638391494751,-0.5447264313697815,0.03227449581027031,0.13825704157352448,0.22129632532596588,-0.0025194212794303894,-1.0249804258346558,0.6088727712631226,-1.39477688052783,0.4360870702845921,-0.017993439914989726,0.1711627646813314,0.5144005001439884,-0.642904954626676,-0.303921671369792,0.31971821554370716,-1.4839844824445132,0.31968313132374854,-0.6030227541923523,-0.0318731926381588,0.08832754194736481,-1.2207592725753784,0.6374136209487915,-0.11234421283006668,-0.46391475200653076,0.832036018371582,0.13540980219841003,0.5816495418548584,-1.0736351013183594,0.6658816337585449,0.8433257937431335,-1.0111093521118164,0.740928053855896,0.718433678150177,-1.5314352330673782,-1.3125122355028491,0.24448015117597463,0.3381253532197318,-0.11500857505753372,0.05846623967123592,-0.40886481312063455,1.023257171112688,-0.9198731420908058,-1.0737440564418834,-1.6631205081939697,1.9099839925765991,0.019667930901050568,0.208001971244812,0.610672652721405,0.6616904735565186,-0.7706900835037231,-0.5001839995384216,-0.6879862546920776,0.29845041036605835,-1.2944986820220947,-1.169938564300537,1.9306083917617798,0.3922066390514374,-0.8450395464897156,0.18778181076049805,0.6052371395307197,1.2352131990449846,0.95647023063504,1.2226990175837802,-0.47791250727140455,0.017116598018511547,-2.552940528940278,-1.0195063581386803,0.07585211986327217,-0.02978748698318711,-1.2946699857711792,0.2200985997915268,-1.2100777626037598,-1.039512038230896,-0.30790984630584717,1.0743757486343384,0.49820807576179504,-0.9433957934379578,0.6541712880134583,-1.913943886756897,0.7611609101295471,0.5573058724403381,0.7368384599685669,0.24631385505199432,-0.35469192266464233,-0.29231542348861694,-0.8966532151592608,-1.4379067508588361,-0.611349073389241,-0.7829202835567496,-0.4910120814004708,-1.1628127950357485,0.7711428447695846,-0.08686733779529034,-2.6463191925112235,0.42969582650703514,-0.43026646971702576,0.8256192803382874,-0.08164572715759277,0.7960197329521179,-0.5048713684082031,0.29762300848960876,0.5871407985687256,-1.296008586883545,1.3250243663787842,-1.3997913599014282,0.7760951519012451,-1.3408894538879395,-0.6178211569786072,-0.17587122321128845,-0.4553927481174469,-0.9964426755905151,2.095620596209505,-1.1079709680196075,-1.6305003412904848,-1.359950408270473,-2.2818710162220763,-1.5847702502248706,0.7643412919294169,-1.9158405100827232,-0.9856892411066704,-0.5562186852860522,0.46225884556770325,0.16295303404331207,-0.9974045157432556,1.1516286134719849,-0.23060765862464905,-0.8930240273475647,-0.2563449442386627,0.4478703439235687,0.12465216219425201,-1.4884780645370483,-0.007845014333724976,1.380296230316162,-2.139716386795044,-0.694831907749176,-0.21311907470226288,-0.352236807346344,0.03638155576172255,-0.5318807201305824,0.4116016078090792,0.008425697902741452,-0.2176273832958816,0.5134409594827615,-0.14879302385371582,-0.8054407014259796,-0.9690323447101193,-1.7674158182695971,-1.320806860923767,0.08558233082294464,-1.2801539897918701,0.06738131493330002,0.3478333652019501,1.0755373239517212,-1.2024725675582886,0.1190248504281044,0.2712518572807312,0.23121042549610138,0.8821332454681396,0.09862454235553741,-0.20820938050746918,1.043605923652649,-0.6735705137252808,-0.19122569262981415,-2.3206642990499162,1.0597341727629355,1.80867275487772,1.0170804079742786,1.433655861554698,-0.8267739912884555,-1.4663758594761866,-0.344083933273071,-0.3636245000575503,-0.7859841362447377,1.1278810501098633,-1.3073309659957886,-0.43967998027801514,-0.36981818079948425,1.8356527090072632,1.5411821603775024,0.749262809753418,-0.6952877044677734,1.5372560024261475,0.9024384021759033,-0.6652436256408691,0.6447721719741821,-2.0093634128570557,0.24017351865768433,0.6866675615310669,1.807047963142395,-0.2835392191957795,0.881608652908254,-0.2354956054420739,0.6558516253580897,0.6899539721841229,-0.3118313007513394,-1.096100510197832,-2.305668106032814,-0.5847974160550562,-0.619800514000099,0.1676892340183258,1.3743222951889038,-0.26068493723869324,-0.27704232931137085,-0.6134601831436157,-0.7299853563308716,-0.4469289481639862,-1.4515331983566284,0.1075618788599968,-0.13025744259357452,-1.5707817077636719,-0.08002680540084839,-1.2712427377700806,-0.5860029458999634,1.7818875312805176,0.006223134696483612,0.1106947437380016,-0.5678670627370015,0.3348281642347746,0.3546138581553416,1.6203802765011133,-2.7813937657819627,-0.4340135812596669,-1.7553763053288751,-1.8181955745190155,-1.5532664743990288,2.637042284011841,-0.06940547376871109,0.9616695642471313,-1.2402958869934082,-1.5025243759155273,0.39067980647087097,-1.2963955402374268,0.11202391982078552,-0.42587971687316895,-0.025618409737944603,0.5681707262992859,-0.0657263696193695,-0.4317444860935211,0.2873784303665161,1.7669563293457031,1.1883959770202637,-0.16797263060587858,0.13309480234238227,-2.575694930970558,-0.40435737273638195,1.1806501128473488,1.2307933990857647,0.05624553516947478]},{"activation":"Sigmoid","size":2,"biases":[0.03373734361293572,0.6253083636128985],"weights":[-0.16133766280990233,0.7403630083991767,0.27818985529664764,0.347448031498373,-0.13972597600131534,0.028599442518060965,0.0948970928511498,-3.7581245174916735,-0.2903355071873803,-0.3893705934609182,0.20036236426492035,-0.33370017959987636,0.6226337761059199,-0.4023917796004908,0.32924665885278864,0.048502303522768825,-1.8940981966378478,-0.06779380976062553,0.4873454493550131,-0.395833337446803,-0.014670262346671941,0.6171001866100531,-0.2524626432924714,0.22367101242480142,-0.3258278014724047,1.7320595963903984,0.14456744575860572,-0.4865604384316515,0.39742115746591744,-0.2990888028812989,-0.5058934294312002,0.7321593770991575,0.8997213356925855,-0.28720658335772375,-0.8227130193412636,0.3693201056591485,-0.6205109197536703,0.04543550062871095,-0.21391497288865866,0.7802039585994524,1.5498687194812855,-2.008273046430542,0.32797926381419773,0.2706054973007794,-0.06098562310479742,0.299357191673283,0.20079271977702423,0.1347446726782042,-0.9818984201876014,-0.8417083705140513,0.007014524475685837,0.15537719959008173,-1.0627874467492966,0.9556917512787318,2.3814400047681517,-0.08902741235578872,-1.4501756615014407,-0.8024921348444604,-1.362327379758095,-0.3281179339874877,0.23135901202613945,-0.6141447772668824,1.798699434244149,0.5102313966241159,0.15240744258433447,-0.6849210815678879,1.9474672558735249,-0.3241592510738545,0.6368647511041687,-1.221746576660959,-1.9660793430257344,0.7455602829977213,0.13762888475244575,0.6465952084468862,0.0063069654730058475,0.5392555710286878,1.685574161839592,0.08272471908837159,-0.5877496117756077,0.6969507963882194,1.0541561308062064,0.5139173487127845,0.1523177487509227,0.0942568457509466,0.3489222161119774,-0.6326929968369163,1.14787646039717,0.15038476556875904,-0.4006955764851388,0.14398895295678027,0.08102044066682883,-1.5482765600980517,-0.6361055995177907,0.967736878681318,0.3882062670816815,0.6143694410498498,2.08324125593733,2.4620519700998473,1.0028752749965264,-0.19099744746066696,1.0148889501056442,-0.6100419617511491,0.002030097346858231,0.5951019238852633,0.09739671021332037,1.8103267052284984,0.3357821484241715,0.05203954654873327,-0.11837470712519367,-0.45014504394044763,0.0937926439535364,0.16814001102032142,-0.8539137880653657,0.01740092148122835,-0.6990798839533572,0.16214424720999002,-0.23567435934552458,1.0051705805623583,-0.5954510826981607,-1.363983722973162]}]}